FANN_FLO_2.1
num_layers=3
learning_rate=0.700000
connection_rate=1.000000
network_type=0
learning_momentum=0.000000
training_algorithm=2
train_error_function=1
train_stop_function=0
cascade_output_change_fraction=0.010000
quickprop_decay=-0.000100
quickprop_mu=1.750000
rprop_increase_factor=1.200000
rprop_decrease_factor=0.500000
rprop_delta_min=0.000000
rprop_delta_max=50.000000
rprop_delta_zero=0.100000
cascade_output_stagnation_epochs=12
cascade_candidate_change_fraction=0.010000
cascade_candidate_stagnation_epochs=12
cascade_max_out_epochs=150
cascade_min_out_epochs=50
cascade_max_cand_epochs=150
cascade_min_cand_epochs=50
cascade_num_candidate_groups=2
bit_fail_limit=3.49999994039535522461e-01
cascade_candidate_limit=1.00000000000000000000e+03
cascade_weight_multiplier=4.00000005960464477539e-01
cascade_activation_functions_count=10
cascade_activation_functions=3 5 7 8 10 11 14 15 16 17 
cascade_activation_steepnesses_count=4
cascade_activation_steepnesses=2.50000000000000000000e-01 5.00000000000000000000e-01 7.50000000000000000000e-01 1.00000000000000000000e+00 
layer_sizes=4 11 2 
scale_included=0
neurons (num_inputs, activation_function, activation_steepness)=(0, 0, 0.00000000000000000000e+00) (0, 0, 0.00000000000000000000e+00) (0, 0, 0.00000000000000000000e+00) (0, 0, 0.00000000000000000000e+00) (4, 5, 5.00000000000000000000e-01) (4, 5, 5.00000000000000000000e-01) (4, 5, 5.00000000000000000000e-01) (4, 5, 5.00000000000000000000e-01) (4, 5, 5.00000000000000000000e-01) (4, 5, 5.00000000000000000000e-01) (4, 5, 5.00000000000000000000e-01) (4, 5, 5.00000000000000000000e-01) (4, 5, 5.00000000000000000000e-01) (4, 5, 5.00000000000000000000e-01) (0, 5, 0.00000000000000000000e+00) (11, 5, 5.00000000000000000000e-01) (0, 5, 0.00000000000000000000e+00) 
connections (connected_to_neuron, weight)=(0, -2.28320860862731933594e+00) (1, 1.82524185180664062500e+01) (2, 1.50000000000000000000e+03) (3, 3.86717438697814941406e-01) (0, 6.68686485290527343750e+00) (1, 6.76244401931762695312e+00) (2, 1.50000000000000000000e+03) (3, 6.77863550186157226562e+00) (0, 1.05764758586883544922e+00) (1, 4.70603331923484802246e-02) (2, 1.50000000000000000000e+03) (3, 1.79041433334350585938e+00) (0, 2.09919261932373046875e+00) (1, 1.73019421100616455078e+00) (2, 1.50000000000000000000e+03) (3, -1.58534181118011474609e+00) (0, 2.63507747650146484375e+01) (1, 2.78713531494140625000e+01) (2, 1.50000000000000000000e+03) (3, 2.61084671020507812500e+01) (0, 2.07600212097167968750e+00) (1, -4.58593070507049560547e-01) (2, 1.50000000000000000000e+03) (3, 2.53781676292419433594e+00) (0, -4.94981384277343750000e+00) (1, -6.06249761581420898438e+00) (2, 1.50000000000000000000e+03) (3, 4.35250014066696166992e-01) (0, 1.17476856708526611328e+00) (1, 1.40689820051193237305e-01) (2, 1.50000000000000000000e+03) (3, 1.82740962505340576172e+00) (0, 1.10108232498168945312e+00) (1, -2.19635516405105590820e-02) (2, 1.50000000000000000000e+03) (3, 1.93727159500122070312e+00) (0, 1.77556669712066650391e+00) (1, -2.71171033382415771484e-01) (2, 1.50000000000000000000e+03) (3, 2.13397407531738281250e+00) (4, 5.55708169937133789062e+00) (5, 7.35287725925445556641e-01) (6, 4.88643312454223632812e+00) (7, 3.51339721679687500000e+01) (8, -2.63240098953247070312e-01) (9, 3.22335171699523925781e+00) (10, 2.48268547058105468750e+01) (11, 2.71257638931274414062e+00) (12, 3.59949898719787597656e+00) (13, 2.38648581504821777344e+00) (14, 3.56105709075927734375e+00) 
