FANN_FLO_2.1
num_layers=5
learning_rate=0.700000
connection_rate=1.000000
network_type=0
learning_momentum=0.000000
training_algorithm=2
train_error_function=1
train_stop_function=0
cascade_output_change_fraction=0.010000
quickprop_decay=-0.000100
quickprop_mu=1.750000
rprop_increase_factor=1.200000
rprop_decrease_factor=0.500000
rprop_delta_min=0.000000
rprop_delta_max=50.000000
rprop_delta_zero=0.100000
cascade_output_stagnation_epochs=12
cascade_candidate_change_fraction=0.010000
cascade_candidate_stagnation_epochs=12
cascade_max_out_epochs=150
cascade_min_out_epochs=50
cascade_max_cand_epochs=150
cascade_min_cand_epochs=50
cascade_num_candidate_groups=2
bit_fail_limit=3.49999994039535522461e-01
cascade_candidate_limit=1.00000000000000000000e+03
cascade_weight_multiplier=4.00000005960464477539e-01
cascade_activation_functions_count=10
cascade_activation_functions=3 5 7 8 10 11 14 15 16 17 
cascade_activation_steepnesses_count=4
cascade_activation_steepnesses=2.50000000000000000000e-01 5.00000000000000000000e-01 7.50000000000000000000e-01 1.00000000000000000000e+00 
layer_sizes=13 101 101 101 13 
scale_included=0
neurons (num_inputs, activation_function, activation_steepness)=(0, 0, 0.00000000000000000000e+00) (0, 0, 0.00000000000000000000e+00) (0, 0, 0.00000000000000000000e+00) (0, 0, 0.00000000000000000000e+00) (0, 0, 0.00000000000000000000e+00) (0, 0, 0.00000000000000000000e+00) (0, 0, 0.00000000000000000000e+00) (0, 0, 0.00000000000000000000e+00) (0, 0, 0.00000000000000000000e+00) (0, 0, 0.00000000000000000000e+00) (0, 0, 0.00000000000000000000e+00) (0, 0, 0.00000000000000000000e+00) (0, 0, 0.00000000000000000000e+00) (13, 5, 5.00000000000000000000e-01) (13, 5, 5.00000000000000000000e-01) (13, 5, 5.00000000000000000000e-01) (13, 5, 5.00000000000000000000e-01) (13, 5, 5.00000000000000000000e-01) (13, 5, 5.00000000000000000000e-01) (13, 5, 5.00000000000000000000e-01) (13, 5, 5.00000000000000000000e-01) (13, 5, 5.00000000000000000000e-01) (13, 5, 5.00000000000000000000e-01) (13, 5, 5.00000000000000000000e-01) (13, 5, 5.00000000000000000000e-01) (13, 5, 5.00000000000000000000e-01) (13, 5, 5.00000000000000000000e-01) (13, 5, 5.00000000000000000000e-01) (13, 5, 5.00000000000000000000e-01) (13, 5, 5.00000000000000000000e-01) (13, 5, 5.00000000000000000000e-01) (13, 5, 5.00000000000000000000e-01) (13, 5, 5.00000000000000000000e-01) (13, 5, 5.00000000000000000000e-01) (13, 5, 5.00000000000000000000e-01) (13, 5, 5.00000000000000000000e-01) (13, 5, 5.00000000000000000000e-01) (13, 5, 5.00000000000000000000e-01) (13, 5, 5.00000000000000000000e-01) (13, 5, 5.00000000000000000000e-01) (13, 5, 5.00000000000000000000e-01) (13, 5, 5.00000000000000000000e-01) (13, 5, 5.00000000000000000000e-01) (13, 5, 5.00000000000000000000e-01) (13, 5, 5.00000000000000000000e-01) (13, 5, 5.00000000000000000000e-01) (13, 5, 5.00000000000000000000e-01) (13, 5, 5.00000000000000000000e-01) (13, 5, 5.00000000000000000000e-01) (13, 5, 5.00000000000000000000e-01) (13, 5, 5.00000000000000000000e-01) (13, 5, 5.00000000000000000000e-01) (13, 5, 5.00000000000000000000e-01) (13, 5, 5.00000000000000000000e-01) (13, 5, 5.00000000000000000000e-01) (13, 5, 5.00000000000000000000e-01) (13, 5, 5.00000000000000000000e-01) (13, 5, 5.00000000000000000000e-01) (13, 5, 5.00000000000000000000e-01) (13, 5, 5.00000000000000000000e-01) (13, 5, 5.00000000000000000000e-01) (13, 5, 5.00000000000000000000e-01) (13, 5, 5.00000000000000000000e-01) (13, 5, 5.00000000000000000000e-01) (13, 5, 5.00000000000000000000e-01) (13, 5, 5.00000000000000000000e-01) (13, 5, 5.00000000000000000000e-01) (13, 5, 5.00000000000000000000e-01) (13, 5, 5.00000000000000000000e-01) (13, 5, 5.00000000000000000000e-01) (13, 5, 5.00000000000000000000e-01) (13, 5, 5.00000000000000000000e-01) (13, 5, 5.00000000000000000000e-01) (13, 5, 5.00000000000000000000e-01) (13, 5, 5.00000000000000000000e-01) (13, 5, 5.00000000000000000000e-01) (13, 5, 5.00000000000000000000e-01) (13, 5, 5.00000000000000000000e-01) (13, 5, 5.00000000000000000000e-01) (13, 5, 5.00000000000000000000e-01) (13, 5, 5.00000000000000000000e-01) (13, 5, 5.00000000000000000000e-01) (13, 5, 5.00000000000000000000e-01) (13, 5, 5.00000000000000000000e-01) (13, 5, 5.00000000000000000000e-01) (13, 5, 5.00000000000000000000e-01) (13, 5, 5.00000000000000000000e-01) (13, 5, 5.00000000000000000000e-01) (13, 5, 5.00000000000000000000e-01) (13, 5, 5.00000000000000000000e-01) (13, 5, 5.00000000000000000000e-01) (13, 5, 5.00000000000000000000e-01) (13, 5, 5.00000000000000000000e-01) (13, 5, 5.00000000000000000000e-01) (13, 5, 5.00000000000000000000e-01) (13, 5, 5.00000000000000000000e-01) (13, 5, 5.00000000000000000000e-01) (13, 5, 5.00000000000000000000e-01) (13, 5, 5.00000000000000000000e-01) (13, 5, 5.00000000000000000000e-01) (13, 5, 5.00000000000000000000e-01) (13, 5, 5.00000000000000000000e-01) (13, 5, 5.00000000000000000000e-01) (13, 5, 5.00000000000000000000e-01) (13, 5, 5.00000000000000000000e-01) (13, 5, 5.00000000000000000000e-01) (13, 5, 5.00000000000000000000e-01) (13, 5, 5.00000000000000000000e-01) (13, 5, 5.00000000000000000000e-01) (13, 5, 5.00000000000000000000e-01) (13, 5, 5.00000000000000000000e-01) (13, 5, 5.00000000000000000000e-01) (13, 5, 5.00000000000000000000e-01) (0, 5, 0.00000000000000000000e+00) (101, 5, 5.00000000000000000000e-01) (101, 5, 5.00000000000000000000e-01) (101, 5, 5.00000000000000000000e-01) (101, 5, 5.00000000000000000000e-01) (101, 5, 5.00000000000000000000e-01) (101, 5, 5.00000000000000000000e-01) (101, 5, 5.00000000000000000000e-01) (101, 5, 5.00000000000000000000e-01) (101, 5, 5.00000000000000000000e-01) (101, 5, 5.00000000000000000000e-01) (101, 5, 5.00000000000000000000e-01) (101, 5, 5.00000000000000000000e-01) (101, 5, 5.00000000000000000000e-01) (101, 5, 5.00000000000000000000e-01) (101, 5, 5.00000000000000000000e-01) (101, 5, 5.00000000000000000000e-01) (101, 5, 5.00000000000000000000e-01) (101, 5, 5.00000000000000000000e-01) (101, 5, 5.00000000000000000000e-01) (101, 5, 5.00000000000000000000e-01) (101, 5, 5.00000000000000000000e-01) (101, 5, 5.00000000000000000000e-01) (101, 5, 5.00000000000000000000e-01) (101, 5, 5.00000000000000000000e-01) (101, 5, 5.00000000000000000000e-01) (101, 5, 5.00000000000000000000e-01) (101, 5, 5.00000000000000000000e-01) (101, 5, 5.00000000000000000000e-01) (101, 5, 5.00000000000000000000e-01) (101, 5, 5.00000000000000000000e-01) (101, 5, 5.00000000000000000000e-01) (101, 5, 5.00000000000000000000e-01) (101, 5, 5.00000000000000000000e-01) (101, 5, 5.00000000000000000000e-01) (101, 5, 5.00000000000000000000e-01) (101, 5, 5.00000000000000000000e-01) (101, 5, 5.00000000000000000000e-01) (101, 5, 5.00000000000000000000e-01) (101, 5, 5.00000000000000000000e-01) (101, 5, 5.00000000000000000000e-01) (101, 5, 5.00000000000000000000e-01) (101, 5, 5.00000000000000000000e-01) (101, 5, 5.00000000000000000000e-01) (101, 5, 5.00000000000000000000e-01) (101, 5, 5.00000000000000000000e-01) (101, 5, 5.00000000000000000000e-01) (101, 5, 5.00000000000000000000e-01) (101, 5, 5.00000000000000000000e-01) (101, 5, 5.00000000000000000000e-01) (101, 5, 5.00000000000000000000e-01) (101, 5, 5.00000000000000000000e-01) (101, 5, 5.00000000000000000000e-01) (101, 5, 5.00000000000000000000e-01) (101, 5, 5.00000000000000000000e-01) (101, 5, 5.00000000000000000000e-01) (101, 5, 5.00000000000000000000e-01) (101, 5, 5.00000000000000000000e-01) (101, 5, 5.00000000000000000000e-01) (101, 5, 5.00000000000000000000e-01) (101, 5, 5.00000000000000000000e-01) (101, 5, 5.00000000000000000000e-01) (101, 5, 5.00000000000000000000e-01) (101, 5, 5.00000000000000000000e-01) (101, 5, 5.00000000000000000000e-01) (101, 5, 5.00000000000000000000e-01) (101, 5, 5.00000000000000000000e-01) (101, 5, 5.00000000000000000000e-01) (101, 5, 5.00000000000000000000e-01) (101, 5, 5.00000000000000000000e-01) (101, 5, 5.00000000000000000000e-01) (101, 5, 5.00000000000000000000e-01) (101, 5, 5.00000000000000000000e-01) (101, 5, 5.00000000000000000000e-01) (101, 5, 5.00000000000000000000e-01) (101, 5, 5.00000000000000000000e-01) (101, 5, 5.00000000000000000000e-01) (101, 5, 5.00000000000000000000e-01) (101, 5, 5.00000000000000000000e-01) (101, 5, 5.00000000000000000000e-01) (101, 5, 5.00000000000000000000e-01) (101, 5, 5.00000000000000000000e-01) (101, 5, 5.00000000000000000000e-01) (101, 5, 5.00000000000000000000e-01) (101, 5, 5.00000000000000000000e-01) (101, 5, 5.00000000000000000000e-01) (101, 5, 5.00000000000000000000e-01) (101, 5, 5.00000000000000000000e-01) (101, 5, 5.00000000000000000000e-01) (101, 5, 5.00000000000000000000e-01) (101, 5, 5.00000000000000000000e-01) (101, 5, 5.00000000000000000000e-01) (101, 5, 5.00000000000000000000e-01) (101, 5, 5.00000000000000000000e-01) (101, 5, 5.00000000000000000000e-01) (101, 5, 5.00000000000000000000e-01) (101, 5, 5.00000000000000000000e-01) (101, 5, 5.00000000000000000000e-01) (101, 5, 5.00000000000000000000e-01) (101, 5, 5.00000000000000000000e-01) (101, 5, 5.00000000000000000000e-01) (0, 5, 0.00000000000000000000e+00) (101, 5, 5.00000000000000000000e-01) (101, 5, 5.00000000000000000000e-01) (101, 5, 5.00000000000000000000e-01) (101, 5, 5.00000000000000000000e-01) (101, 5, 5.00000000000000000000e-01) (101, 5, 5.00000000000000000000e-01) (101, 5, 5.00000000000000000000e-01) (101, 5, 5.00000000000000000000e-01) (101, 5, 5.00000000000000000000e-01) (101, 5, 5.00000000000000000000e-01) (101, 5, 5.00000000000000000000e-01) (101, 5, 5.00000000000000000000e-01) (101, 5, 5.00000000000000000000e-01) (101, 5, 5.00000000000000000000e-01) (101, 5, 5.00000000000000000000e-01) (101, 5, 5.00000000000000000000e-01) (101, 5, 5.00000000000000000000e-01) (101, 5, 5.00000000000000000000e-01) (101, 5, 5.00000000000000000000e-01) (101, 5, 5.00000000000000000000e-01) (101, 5, 5.00000000000000000000e-01) (101, 5, 5.00000000000000000000e-01) (101, 5, 5.00000000000000000000e-01) (101, 5, 5.00000000000000000000e-01) (101, 5, 5.00000000000000000000e-01) (101, 5, 5.00000000000000000000e-01) (101, 5, 5.00000000000000000000e-01) (101, 5, 5.00000000000000000000e-01) (101, 5, 5.00000000000000000000e-01) (101, 5, 5.00000000000000000000e-01) (101, 5, 5.00000000000000000000e-01) (101, 5, 5.00000000000000000000e-01) (101, 5, 5.00000000000000000000e-01) (101, 5, 5.00000000000000000000e-01) (101, 5, 5.00000000000000000000e-01) (101, 5, 5.00000000000000000000e-01) (101, 5, 5.00000000000000000000e-01) (101, 5, 5.00000000000000000000e-01) (101, 5, 5.00000000000000000000e-01) (101, 5, 5.00000000000000000000e-01) (101, 5, 5.00000000000000000000e-01) (101, 5, 5.00000000000000000000e-01) (101, 5, 5.00000000000000000000e-01) (101, 5, 5.00000000000000000000e-01) (101, 5, 5.00000000000000000000e-01) (101, 5, 5.00000000000000000000e-01) (101, 5, 5.00000000000000000000e-01) (101, 5, 5.00000000000000000000e-01) (101, 5, 5.00000000000000000000e-01) (101, 5, 5.00000000000000000000e-01) (101, 5, 5.00000000000000000000e-01) (101, 5, 5.00000000000000000000e-01) (101, 5, 5.00000000000000000000e-01) (101, 5, 5.00000000000000000000e-01) (101, 5, 5.00000000000000000000e-01) (101, 5, 5.00000000000000000000e-01) (101, 5, 5.00000000000000000000e-01) (101, 5, 5.00000000000000000000e-01) (101, 5, 5.00000000000000000000e-01) (101, 5, 5.00000000000000000000e-01) (101, 5, 5.00000000000000000000e-01) (101, 5, 5.00000000000000000000e-01) (101, 5, 5.00000000000000000000e-01) (101, 5, 5.00000000000000000000e-01) (101, 5, 5.00000000000000000000e-01) (101, 5, 5.00000000000000000000e-01) (101, 5, 5.00000000000000000000e-01) (101, 5, 5.00000000000000000000e-01) (101, 5, 5.00000000000000000000e-01) (101, 5, 5.00000000000000000000e-01) (101, 5, 5.00000000000000000000e-01) (101, 5, 5.00000000000000000000e-01) (101, 5, 5.00000000000000000000e-01) (101, 5, 5.00000000000000000000e-01) (101, 5, 5.00000000000000000000e-01) (101, 5, 5.00000000000000000000e-01) (101, 5, 5.00000000000000000000e-01) (101, 5, 5.00000000000000000000e-01) (101, 5, 5.00000000000000000000e-01) (101, 5, 5.00000000000000000000e-01) (101, 5, 5.00000000000000000000e-01) (101, 5, 5.00000000000000000000e-01) (101, 5, 5.00000000000000000000e-01) (101, 5, 5.00000000000000000000e-01) (101, 5, 5.00000000000000000000e-01) (101, 5, 5.00000000000000000000e-01) (101, 5, 5.00000000000000000000e-01) (101, 5, 5.00000000000000000000e-01) (101, 5, 5.00000000000000000000e-01) (101, 5, 5.00000000000000000000e-01) (101, 5, 5.00000000000000000000e-01) (101, 5, 5.00000000000000000000e-01) (101, 5, 5.00000000000000000000e-01) (101, 5, 5.00000000000000000000e-01) (101, 5, 5.00000000000000000000e-01) (101, 5, 5.00000000000000000000e-01) (101, 5, 5.00000000000000000000e-01) (101, 5, 5.00000000000000000000e-01) (101, 5, 5.00000000000000000000e-01) (101, 5, 5.00000000000000000000e-01) (0, 5, 0.00000000000000000000e+00) (101, 5, 5.00000000000000000000e-01) (101, 5, 5.00000000000000000000e-01) (101, 5, 5.00000000000000000000e-01) (101, 5, 5.00000000000000000000e-01) (101, 5, 5.00000000000000000000e-01) (101, 5, 5.00000000000000000000e-01) (101, 5, 5.00000000000000000000e-01) (101, 5, 5.00000000000000000000e-01) (101, 5, 5.00000000000000000000e-01) (101, 5, 5.00000000000000000000e-01) (101, 5, 5.00000000000000000000e-01) (101, 5, 5.00000000000000000000e-01) (0, 5, 0.00000000000000000000e+00) 
connections (connected_to_neuron, weight)=(0, 1.97092905640602111816e-01) (1, 5.15703248977661132812e+00) (2, -3.01665682345628738403e-02) (3, -4.54478412866592407227e-01) (4, 1.28655433654785156250e+01) (5, 6.80544376373291015625e-01) (6, 1.89611041545867919922e+00) (7, 1.50000000000000000000e+03) (8, 3.43186111450195312500e+01) (9, 1.53622245788574218750e+00) (10, 5.69248497486114501953e-01) (11, 9.13787961006164550781e-01) (12, 5.39734780788421630859e-01) (0, -2.30606138706207275391e-01) (1, 7.33681797981262207031e-01) (2, -1.63474027067422866821e-02) (3, 1.94887936115264892578e-01) (4, -1.07027687132358551025e-01) (5, -6.90360888838768005371e-02) (6, 3.30940485000610351562e-01) (7, 1.50000000000000000000e+03) (8, -2.86347121000289916992e-01) (9, 6.79273128509521484375e-01) (10, -4.66674685478210449219e-01) (11, -4.60943430662155151367e-01) (12, 2.31810972094535827637e-01) (0, 4.58825320005416870117e-01) (1, -3.12433630228042602539e-01) (2, 1.65377214550971984863e-01) (3, 1.09910942614078521729e-01) (4, -6.85477733612060546875e-01) (5, 2.72164106369018554688e-01) (6, -5.29022254049777984619e-02) (7, 1.50000000000000000000e+03) (8, -1.78654918670654296875e+01) (9, -2.71082878112792968750e-01) (10, -5.81044733524322509766e-01) (11, -1.37079298496246337891e-01) (12, -5.19325546920299530029e-02) (0, 3.33646684885025024414e-01) (1, -1.07689484953880310059e-01) (2, 4.08236265182495117188e-01) (3, 4.67453420162200927734e-01) (4, 4.24946069717407226562e-01) (5, -2.61289566755294799805e-01) (6, -1.37651652097702026367e-01) (7, 1.50000000000000000000e+03) (8, 1.47192454338073730469e+00) (9, -3.03182512521743774414e-01) (10, 3.75526174902915954590e-02) (11, -1.50378271937370300293e-01) (12, -6.36841177940368652344e-01) (0, 1.26604571938514709473e-01) (1, -4.37400937080383300781e-02) (2, 2.16996073722839355469e-01) (3, 2.85407274961471557617e-01) (4, -6.67430579662322998047e-01) (5, 3.92729699611663818359e-01) (6, 3.79598259925842285156e-01) (7, 1.50000000000000000000e+03) (8, -5.43214559555053710938e-01) (9, -3.87382805347442626953e-02) (10, -4.92630004882812500000e-01) (11, 3.82408410310745239258e-01) (12, -5.56494742631912231445e-02) (0, -3.61450999975204467773e-01) (1, -1.82668998837471008301e-01) (2, 2.28235851973295211792e-02) (3, 6.44270777702331542969e-02) (4, 2.93046385049819946289e-02) (5, -1.06042660772800445557e-01) (6, 6.55755447223782539368e-03) (7, 1.50000000000000000000e+03) (8, 6.42798617482185363770e-02) (9, -5.90053126215934753418e-02) (10, -2.72202491760253906250e-01) (11, -1.58275812864303588867e-01) (12, 7.10403621196746826172e-02) (0, 6.91523730754852294922e-01) (1, 4.88392204046249389648e-01) (2, 1.49877270507812500000e+03) (3, 1.38418774414062500000e+03) (4, 1.51845291256904602051e-02) (5, 5.76515913009643554688e-01) (6, 6.74658238887786865234e-01) (7, 1.50000000000000000000e+03) (8, 4.19593858718872070312e+00) (9, 1.53718307614326477051e-01) (10, 3.96194577217102050781e-01) (11, -1.09259009361267089844e-01) (12, 3.83827865123748779297e-01) (0, 6.02527916431427001953e-01) (1, -1.86484682559967041016e+00) (2, 8.77024948596954345703e-01) (3, 1.68659436702728271484e+00) (4, -1.28236603736877441406e+00) (5, -3.71513485908508300781e+00) (6, -5.10753965377807617188e+00) (7, 1.50000000000000000000e+03) (8, 7.10329437255859375000e+01) (9, 3.27678036689758300781e+00) (10, 2.82378721237182617188e+00) (11, 2.68462324142456054688e+00) (12, 1.03381907939910888672e+00) (0, 2.14673280715942382812e-01) (1, 1.52228713035583496094e-01) (2, 4.11640793085098266602e-01) (3, 1.97258055210113525391e-01) (4, 1.46958753466606140137e-01) (5, 3.13475608825683593750e-01) (6, -9.34399068355560302734e-02) (7, 1.50000000000000000000e+03) (8, -3.99174451828002929688e-01) (9, 5.33490538597106933594e-01) (10, -4.86645668745040893555e-01) (11, 1.68279781937599182129e-01) (12, 1.36815562844276428223e-01) (0, -1.87958002090454101562e+00) (1, 4.57178175449371337891e-01) (2, -1.30125427246093750000e+01) (3, 3.50205510854721069336e-01) (4, 5.41461110115051269531e-01) (5, 3.53555709123611450195e-01) (6, -4.25592549145221710205e-02) (7, 1.50000000000000000000e+03) (8, 2.76992535591125488281e+00) (9, -7.89263006299734115601e-03) (10, 3.84072393178939819336e-01) (11, 4.59782660007476806641e-01) (12, 4.21364530920982360840e-02) (0, 1.28914162516593933105e-01) (1, 3.45023393630981445312e-01) (2, -2.22439080476760864258e-01) (3, -1.64255633950233459473e-01) (4, 1.77567854523658752441e-01) (5, -1.65223881602287292480e-01) (6, 4.52173662185668945312e+00) (7, 1.50000000000000000000e+03) (8, -4.83758068084716796875e+00) (9, 9.86687064170837402344e-01) (10, 9.59330141544342041016e-01) (11, 3.98296654224395751953e-01) (12, 3.02223414182662963867e-01) (0, -2.08921864628791809082e-01) (1, 8.19713324308395385742e-02) (2, 8.46621319651603698730e-02) (3, 1.77532240748405456543e-01) (4, -7.91640996932983398438e-01) (5, 1.36156275868415832520e-01) (6, -4.30308789014816284180e-01) (7, 1.50000000000000000000e+03) (8, -1.23128938674926757812e+00) (9, -3.83875846862792968750e-01) (10, -4.23463344573974609375e-01) (11, 4.00945395231246948242e-02) (12, -5.06618581712245941162e-02) (0, -5.60154855251312255859e-01) (1, -6.33587360382080078125e-01) (2, 2.55404740571975708008e-01) (3, 1.76311716437339782715e-01) (4, 5.38646996021270751953e-01) (5, 1.79651960730552673340e-01) (6, 4.60404396057128906250e-01) (7, 1.50000000000000000000e+03) (8, -8.04185330867767333984e-01) (9, 2.27431297302246093750e-01) (10, 5.22658705711364746094e-01) (11, 1.96969553828239440918e-01) (12, -2.20007926225662231445e-01) (0, -1.14706039428710937500e+00) (1, -5.40001410990953445435e-03) (2, 5.48895448446273803711e-03) (3, -4.38688434660434722900e-02) (4, -3.49045038223266601562e-01) (5, 6.57919496297836303711e-02) (6, -5.36724273115396499634e-03) (7, 1.50000000000000000000e+03) (8, -4.55107147216796875000e+02) (9, 5.49625098705291748047e-01) (10, -2.41008549928665161133e-02) (11, 2.50708833336830139160e-02) (12, 1.56372293829917907715e-01) (0, 2.10076794028282165527e-01) (1, 2.73852888494729995728e-02) (2, -8.84068667888641357422e-01) (3, -8.40231001377105712891e-01) (4, 8.82117629051208496094e-01) (5, 1.48183256387710571289e-01) (6, 2.24970650672912597656e+00) (7, 1.50000000000000000000e+03) (8, 1.04418516159057617188e-01) (9, 1.25727045536041259766e+00) (10, 5.85441529750823974609e-01) (11, -1.52562156319618225098e-01) (12, 3.82063746452331542969e-01) (0, -1.44561380147933959961e-01) (1, 1.15715906023979187012e-01) (2, 5.51166087388992309570e-02) (3, 3.11622321605682373047e-02) (4, 5.02223491668701171875e+00) (5, 1.14323407411575317383e-01) (6, 3.96116027832031250000e+02) (7, 1.50000000000000000000e+03) (8, 1.92862873077392578125e+01) (9, -3.97894477844238281250e+00) (10, 4.16653442382812500000e+01) (11, 1.36650338768959045410e-01) (12, 1.59947961568832397461e-01) (0, -4.39236700534820556641e-01) (1, -6.73476457595825195312e-02) (2, -9.14654374122619628906e-01) (3, -1.28494763374328613281e+00) (4, 3.87883067131042480469e-01) (5, -1.49051308631896972656e-01) (6, 1.38699805736541748047e+00) (7, 1.50000000000000000000e+03) (8, 9.35344517230987548828e-01) (9, 8.71695697307586669922e-01) (10, 4.91638064384460449219e-01) (11, 6.21105283498764038086e-02) (12, 3.11614125967025756836e-01) (0, 4.96396034955978393555e-01) (1, 1.26763451099395751953e+00) (2, -3.45852635800838470459e-02) (3, -1.38631790876388549805e-01) (4, 7.38396644592285156250e-01) (5, 3.78180742263793945312e-01) (6, 5.53717672824859619141e-01) (7, 1.50000000000000000000e+03) (8, 2.65753817558288574219e+00) (9, 6.25216543674468994141e-01) (10, 5.38034260272979736328e-01) (11, 6.74450755119323730469e-01) (12, 4.33136105537414550781e-01) (0, -6.57687246799468994141e-01) (1, -9.40694883465766906738e-02) (2, -7.69732221961021423340e-02) (3, -7.91382268071174621582e-02) (4, 1.00113487243652343750e+00) (5, -1.05058766901493072510e-01) (6, 2.12539501190185546875e+01) (7, 1.50000000000000000000e+03) (8, 1.50000000000000000000e+03) (9, 7.14605987071990966797e-01) (10, 1.55499708652496337891e+00) (11, -2.18235149979591369629e-01) (12, 5.48554062843322753906e-02) (0, 4.34304028749465942383e-01) (1, 1.02732586860656738281e+00) (2, 5.98344087600708007812e-01) (3, 9.86658990383148193359e-01) (4, 4.72602510452270507812e+00) (5, 1.69266808032989501953e+00) (6, 1.39484381675720214844e+00) (7, 1.50000000000000000000e+03) (8, 1.39020156860351562500e+02) (9, 1.54459476470947265625e-01) (10, 8.34998607635498046875e-01) (11, 1.15620791912078857422e+00) (12, -1.05612826347351074219e+00) (0, 4.97038543224334716797e-01) (1, 6.83391749858856201172e-01) (2, -4.29240971803665161133e-01) (3, 4.77653771638870239258e-01) (4, -8.27790558338165283203e-01) (5, 1.04444456100463867188e+00) (6, -1.10523295402526855469e+00) (7, 1.50000000000000000000e+03) (8, 7.61807556152343750000e+01) (9, 5.61852979660034179688e+00) (10, 3.65055233240127563477e-01) (11, 9.62306201457977294922e-01) (12, 6.25271320343017578125e-01) (0, 5.01308441162109375000e-01) (1, 1.37762665748596191406e+00) (2, 3.14427822828292846680e-01) (3, 4.37884747982025146484e-01) (4, 5.77718734741210937500e-01) (5, 7.83160328865051269531e-01) (6, 6.12225592136383056641e-01) (7, 1.50000000000000000000e+03) (8, 5.97487866878509521484e-01) (9, 1.03078806400299072266e+00) (10, -5.60939848423004150391e-01) (11, 7.16778159141540527344e-01) (12, 7.92510248720645904541e-03) (0, 3.50576490163803100586e-01) (1, -5.07530085742473602295e-02) (2, 5.41244298219680786133e-02) (3, 2.50527650117874145508e-01) (4, -2.23257750272750854492e-01) (5, -2.21591368317604064941e-02) (6, -1.42707467079162597656e-01) (7, 1.50000000000000000000e+03) (8, -8.47502589225769042969e-01) (9, 1.31909782066941261292e-03) (10, -2.14332163333892822266e-01) (11, -3.75894814729690551758e-01) (12, -2.26114630699157714844e-01) (0, -8.93671289086341857910e-02) (1, -4.96005900204181671143e-02) (2, 2.43947163224220275879e-01) (3, 2.66365647315979003906e-01) (4, -8.37563425302505493164e-02) (5, -1.77908867597579956055e-01) (6, -1.99548035860061645508e-01) (7, 1.50000000000000000000e+03) (8, -2.24890828132629394531e-01) (9, -1.05519317090511322021e-01) (10, 1.24419584870338439941e-01) (11, -1.05820551514625549316e-01) (12, -6.27152323722839355469e-01) (0, 5.37580668926239013672e-01) (1, 2.07987293601036071777e-01) (2, 3.15371125936508178711e-01) (3, 3.95896017551422119141e-01) (4, -2.07748770713806152344e-01) (5, 3.78567844629287719727e-01) (6, 3.57397019863128662109e-01) (7, 1.50000000000000000000e+03) (8, 3.67730259895324707031e+00) (9, -7.60123848915100097656e-01) (10, 4.77169871330261230469e-01) (11, 3.65898102521896362305e-01) (12, -2.49535247683525085449e-01) (0, 3.56357127428054809570e-01) (1, 2.46911570429801940918e-01) (2, -3.19416970014572143555e-02) (3, 7.19121918082237243652e-02) (4, -9.18434411287307739258e-02) (5, -1.08217328786849975586e-01) (6, 9.59061741828918457031e-01) (7, 1.50000000000000000000e+03) (8, 2.88296127319335937500e+00) (9, 3.73523980379104614258e-01) (10, 5.43059349060058593750e-01) (11, 7.96321257948875427246e-02) (12, 1.05724185705184936523e-01) (0, 2.08073568344116210938e+00) (1, 1.23915068805217742920e-01) (2, 3.36267828941345214844e+00) (3, 2.48209400177001953125e+01) (4, 6.35050356388092041016e-01) (5, -9.53739702701568603516e-01) (6, -7.13380753993988037109e-01) (7, 1.50000000000000000000e+03) (8, 1.90214717388153076172e+00) (9, -5.61764955520629882812e-01) (10, -2.53149002790451049805e-01) (11, 5.54973959922790527344e-01) (12, 1.40803009271621704102e-01) (0, -5.97234144806861877441e-02) (1, 5.15992403030395507812e-01) (2, -7.32012271881103515625e-01) (3, -6.02751016616821289062e-01) (4, 4.80796933174133300781e-01) (5, 3.01161885261535644531e-01) (6, 7.04211831092834472656e-01) (7, 1.50000000000000000000e+03) (8, 1.86720621585845947266e+00) (9, 9.16841566562652587891e-01) (10, 9.19292807579040527344e-01) (11, 3.27729046344757080078e-01) (12, -1.96588158607482910156e-01) (0, 1.42413824796676635742e-01) (1, -2.89431624114513397217e-02) (2, -1.46183157339692115784e-02) (3, -1.19304388761520385742e-01) (4, -4.75720226764678955078e-01) (5, -2.61084195226430892944e-02) (6, -2.71715641021728515625e-01) (7, 1.50000000000000000000e+03) (8, 9.26453709602355957031e-01) (9, 9.41689729690551757812e-01) (10, 1.46139338612556457520e-01) (11, 2.98807561397552490234e-01) (12, -5.05875470116734504700e-03) (0, 4.37744468450546264648e-01) (1, -2.30285346508026123047e-01) (2, 4.41011786460876464844e-01) (3, 4.88796502351760864258e-01) (4, 5.88931858539581298828e-01) (5, -4.81773354113101959229e-02) (6, 2.48476520180702209473e-01) (7, 1.50000000000000000000e+03) (8, 1.84249160766601562500e+02) (9, -2.09111586213111877441e-01) (10, 6.76986515522003173828e-01) (11, -1.87812909483909606934e-01) (12, -3.31953436136245727539e-01) (0, 2.34709084033966064453e-01) (1, 5.22512733936309814453e-01) (2, 2.74530863761901855469e+00) (3, 3.09225296974182128906e+00) (4, -6.98598980903625488281e-01) (5, 1.14948296546936035156e+00) (6, 4.30106759071350097656e-01) (7, 1.50000000000000000000e+03) (8, 1.03995583951473236084e-01) (9, 1.52114316821098327637e-01) (10, 1.76370829343795776367e-01) (11, -4.49971437454223632812e-01) (12, -7.51267313957214355469e-01) (0, -5.31650841236114501953e-01) (1, 1.39795720577239990234e-01) (2, -2.73938000202178955078e-01) (3, -3.70976299047470092773e-01) (4, -1.36511689051985740662e-02) (5, -1.83067724108695983887e-01) (6, -2.17528298497200012207e-01) (7, 1.50000000000000000000e+03) (8, -5.96316456794738769531e-01) (9, -5.55238246917724609375e-01) (10, 1.36972982436418533325e-02) (11, 8.95389169454574584961e-02) (12, 1.05327561497688293457e-01) (0, 5.16446530818939208984e-01) (1, 1.11096727848052978516e+00) (2, 4.02832388877868652344e-01) (3, 3.37551414966583251953e-01) (4, 3.15422248840332031250e+00) (5, -3.83757710456848144531e-01) (6, 2.25446581840515136719e+00) (7, 1.50000000000000000000e+03) (8, 9.58961129188537597656e-01) (9, 4.56142067909240722656e-01) (10, 2.09618830680847167969e+00) (11, 5.67307114601135253906e-01) (12, 3.87309163808822631836e-01) (0, 1.92908346652984619141e-01) (1, 5.99441528320312500000e-01) (2, 2.61205226182937622070e-01) (3, 3.48640143871307373047e-01) (4, 5.16239523887634277344e-01) (5, 4.78866636753082275391e-01) (6, 5.16994059085845947266e-01) (7, 1.50000000000000000000e+03) (8, 1.04338169097900390625e+00) (9, 3.99348378181457519531e-01) (10, 3.59394639730453491211e-01) (11, 4.10130649805068969727e-01) (12, 2.11998701095581054688e-01) (0, -2.73654945194721221924e-02) (1, -1.62315577268600463867e-01) (2, 2.41264626383781433105e-01) (3, 3.75465452671051025391e-01) (4, -1.34720936417579650879e-01) (5, 7.62177407741546630859e-02) (6, -1.27375558018684387207e-01) (7, 1.50000000000000000000e+03) (8, 4.74194772541522979736e-02) (9, 5.10531723499298095703e-01) (10, -7.41553828120231628418e-02) (11, -1.45526692271232604980e-01) (12, -5.00121116638183593750e-01) (0, 3.84214222431182861328e-01) (1, 3.52696210145950317383e-01) (2, 2.78425157070159912109e-01) (3, 1.50726273655891418457e-01) (4, 6.46238565444946289062e-01) (5, 3.20360690355300903320e-01) (6, 3.97035300731658935547e-01) (7, 1.50000000000000000000e+03) (8, 1.49976379394531250000e+03) (9, 4.07869875431060791016e-01) (10, 5.02143859863281250000e-01) (11, 2.87508606910705566406e-01) (12, -2.91632205247879028320e-01) (0, 7.29594726562500000000e+01) (1, 7.47240483760833740234e-01) (2, 1.47224258422851562500e+02) (3, -5.38019323348999023438e+00) (4, -1.38922739028930664062e+00) (5, -1.08491313457489013672e+00) (6, -1.12580585479736328125e+00) (7, 1.50000000000000000000e+03) (8, 3.55196228027343750000e+01) (9, -5.11614274978637695312e+00) (10, -1.34425461292266845703e+00) (11, 9.78973960876464843750e+00) (12, 1.68527111411094665527e-01) (0, -3.75391602516174316406e-01) (1, 6.02005906403064727783e-02) (2, -4.64079588651657104492e-01) (3, -6.13367199897766113281e-01) (4, -9.27526727318763732910e-02) (5, -2.74360388517379760742e-01) (6, 3.96645426750183105469e+00) (7, 1.50000000000000000000e+03) (8, 3.15334349870681762695e-01) (9, 1.38514184951782226562e+00) (10, 5.26621937751770019531e-01) (11, -1.73515558242797851562e-01) (12, 1.04128710925579071045e-01) (0, 3.46126168966293334961e-01) (1, 5.53017437458038330078e-01) (2, -1.17756295204162597656e+00) (3, 2.94453889131546020508e-01) (4, 4.14856147766113281250e+00) (5, 1.97021126747131347656e-01) (6, -5.82673490047454833984e-01) (7, 1.50000000000000000000e+03) (8, -1.38867530822753906250e+01) (9, 1.45183503627777099609e+00) (10, -9.00686442852020263672e-01) (11, 4.10657852888107299805e-01) (12, 1.35812401771545410156e+00) (0, 6.32550716400146484375e-02) (1, 2.86497414112091064453e-01) (2, -3.77536490559577941895e-02) (3, -4.84015554189682006836e-01) (4, 1.01545274257659912109e+00) (5, 2.06464573740959167480e-01) (6, 1.77924079895019531250e+01) (7, 1.50000000000000000000e+03) (8, -2.31071639060974121094e+00) (9, 1.89326179027557373047e+00) (10, -5.73873698711395263672e-01) (11, 5.67073039710521697998e-02) (12, 3.76985967159271240234e-01) (0, 1.91295289993286132812e+00) (1, 1.04653334617614746094e+00) (2, -1.06467926502227783203e+00) (3, -9.18128728866577148438e-01) (4, -1.34931004047393798828e+00) (5, 2.82385289669036865234e-01) (6, 1.70967209339141845703e+00) (7, 1.50000000000000000000e+03) (8, 1.71921939849853515625e+01) (9, 8.96237730979919433594e-01) (10, -3.04988670349121093750e+00) (11, 1.03823542594909667969e+00) (12, 7.58895456790924072266e-01) (0, 2.19408065080642700195e-01) (1, 4.69095975160598754883e-01) (2, 2.76439841836690902710e-02) (3, -6.90402910113334655762e-02) (4, 3.12865376472473144531e-01) (5, 2.64279037714004516602e-01) (6, 4.46577668190002441406e-01) (7, 1.50000000000000000000e+03) (8, -1.12985479831695556641e+00) (9, 5.68578600883483886719e-01) (10, 4.36797738075256347656e-01) (11, 2.50988274812698364258e-01) (12, 2.20612093806266784668e-01) (0, -5.72350859642028808594e-01) (1, -3.00976961851119995117e-01) (2, 2.59774565696716308594e-01) (3, 1.93875238299369812012e-01) (4, -5.61055898666381835938e-01) (5, -3.36121052503585815430e-01) (6, 1.43384948372840881348e-01) (7, 1.50000000000000000000e+03) (8, -1.83836426585912704468e-02) (9, 6.42087459564208984375e-02) (10, 1.28647506237030029297e-01) (11, -2.16699883341789245605e-01) (12, -3.02837491035461425781e-02) (0, 1.34201717376708984375e+00) (1, 2.91413813829421997070e-01) (2, 2.88339644670486450195e-01) (3, -5.41342258453369140625e+00) (4, 7.13153457641601562500e+00) (5, 5.05900478363037109375e+00) (6, -1.14831283688545227051e-01) (7, 1.50000000000000000000e+03) (8, 9.55428791046142578125e+00) (9, 6.67585432529449462891e-01) (10, 6.29608809947967529297e-01) (11, 2.54897654056549072266e-01) (12, 7.83698558807373046875e-01) (0, 2.84308910369873046875e-01) (1, -3.00496518611907958984e-01) (2, 1.20070133209228515625e+01) (3, -1.60093498229980468750e+00) (4, 2.90913987159729003906e+00) (5, 1.52972745895385742188e+00) (6, 2.32734656333923339844e+00) (7, 1.50000000000000000000e+03) (8, -1.51764316558837890625e+01) (9, 9.43725883960723876953e-01) (10, 3.27672386169433593750e+00) (11, 9.93100941181182861328e-01) (12, 2.92915773391723632812e+00) (0, 1.63051259517669677734e+00) (1, 6.50820207595825195312e+00) (2, 1.19263303279876708984e+00) (3, 2.38796901702880859375e+00) (4, 9.83652687072753906250e+00) (5, 4.06063175201416015625e+00) (6, -1.10506355762481689453e+00) (7, 1.50000000000000000000e+03) (8, 4.55910873413085937500e+01) (9, -9.91418540477752685547e-01) (10, -1.88302934169769287109e-01) (11, 5.78499674797058105469e-01) (12, 6.10136449337005615234e-01) (0, -5.28574168682098388672e-01) (1, -2.50290483236312866211e-01) (2, -9.05598178505897521973e-02) (3, -4.94768097996711730957e-02) (4, -2.57547974586486816406e-01) (5, 7.60896783322095870972e-03) (6, 2.60355979204177856445e-01) (7, 1.50000000000000000000e+03) (8, -3.66709142923355102539e-01) (9, -1.62140339612960815430e-01) (10, 1.36672779917716979980e-01) (11, -3.01646113395690917969e-01) (12, -3.25313583016395568848e-02) (0, 3.37362229824066162109e-01) (1, 3.63734155893325805664e-01) (2, -1.14488899707794189453e+00) (3, -1.15505373477935791016e+00) (4, 2.19177767634391784668e-01) (5, 4.89741832017898559570e-01) (6, 1.19610536098480224609e+00) (7, 1.50000000000000000000e+03) (8, 7.21226730346679687500e+01) (9, 9.72378611564636230469e-01) (10, 4.49390739202499389648e-01) (11, 3.58625799417495727539e-01) (12, -2.00012028217315673828e-01) (0, 6.66409954428672790527e-02) (1, 4.49754029512405395508e-01) (2, 2.50531852245330810547e-01) (3, -5.08564770221710205078e-01) (4, -5.38101136684417724609e-01) (5, 1.53303623199462890625e-01) (6, 4.05845716595649719238e-02) (7, 1.50000000000000000000e+03) (8, 1.44756123423576354980e-01) (9, -2.10845932364463806152e-01) (10, -2.52703756093978881836e-01) (11, 4.03955757617950439453e-01) (12, 2.82873421907424926758e-01) (0, -4.44461047649383544922e-01) (1, -4.18102234601974487305e-01) (2, -2.55475997924804687500e-01) (3, -2.74978429079055786133e-01) (4, 1.97708323597908020020e-01) (5, -3.84030967950820922852e-01) (6, -1.26374542713165283203e+00) (7, 1.50000000000000000000e+03) (8, 2.37401866912841796875e+00) (9, 6.26437246799468994141e-01) (10, 4.64906096458435058594e-01) (11, 3.26483547687530517578e-01) (12, 8.60783457756042480469e-01) (0, 2.58743882179260253906e-01) (1, 3.88289064168930053711e-01) (2, -2.89092993736267089844e+00) (3, -2.62579727172851562500e+00) (4, 5.20376384258270263672e-01) (5, 4.84333001077175140381e-02) (6, 3.20999890565872192383e-01) (7, 1.50000000000000000000e+03) (8, 9.87291097640991210938e-01) (9, 3.46488952636718750000e-01) (10, 2.59901911020278930664e-01) (11, 3.19318562746047973633e-01) (12, -3.78150403499603271484e-01) (0, 1.08711051940917968750e+00) (1, 7.55198657512664794922e-01) (2, 3.94028633832931518555e-01) (3, 5.28276085853576660156e-01) (4, 4.39446330070495605469e-01) (5, 4.51207190752029418945e-01) (6, 4.72863316535949707031e-01) (7, 1.50000000000000000000e+03) (8, 2.19235267639160156250e+01) (9, 5.97270727157592773438e-01) (10, 3.41924905776977539062e-01) (11, 4.61507648229598999023e-01) (12, 1.75282090902328491211e-01) (0, 2.92584955692291259766e-01) (1, 8.24326694011688232422e-01) (2, -1.02395288646221160889e-01) (3, 1.40119820833206176758e-01) (4, -5.05597531795501708984e-01) (5, 2.85437554121017456055e-01) (6, 1.18760561943054199219e+00) (7, 1.50000000000000000000e+03) (8, 1.86950933933258056641e+00) (9, 6.59017205238342285156e-01) (10, 1.20792925357818603516e+00) (11, 6.27551555633544921875e-01) (12, 2.78718531131744384766e-01) (0, 5.19734561443328857422e-01) (1, 4.51351833343505859375e+00) (2, 7.81976521015167236328e-01) (3, 5.13715076446533203125e+00) (4, 8.31959533691406250000e+00) (5, 6.51228666305541992188e+00) (6, 4.60825347900390625000e+01) (7, 1.50000000000000000000e+03) (8, 8.50927062988281250000e+02) (9, -1.37672555446624755859e+00) (10, -4.00697328150272369385e-02) (11, 1.40616726875305175781e+00) (12, 6.05552494525909423828e-01) (0, 6.44998669624328613281e-01) (1, 1.02715790271759033203e-01) (2, 1.16155803203582763672e+00) (3, 7.80971229076385498047e-01) (4, 4.27311778068542480469e-01) (5, 1.01762957870960235596e-01) (6, -7.65992820262908935547e-01) (7, 1.50000000000000000000e+03) (8, 1.14483678340911865234e+00) (9, -5.00118255615234375000e-01) (10, 1.74164235591888427734e-01) (11, 2.12669327855110168457e-01) (12, -3.94867002964019775391e-01) (0, -4.19835984706878662109e-01) (1, 1.54752686619758605957e-01) (2, 2.84147918224334716797e-01) (3, -1.96750521659851074219e+00) (4, -1.78814935684204101562e+00) (5, 1.41476113349199295044e-02) (6, 1.09228267669677734375e+01) (7, 1.50000000000000000000e+03) (8, -4.79844141006469726562e+00) (9, 1.26876071095466613770e-01) (10, -1.52095711231231689453e+00) (11, 1.17357835173606872559e-01) (12, 5.69150447845458984375e-01) (0, -2.32105657458305358887e-01) (1, -1.38665705919265747070e-01) (2, -9.60296858102083206177e-03) (3, -5.69553598761558532715e-02) (4, -3.34899097681045532227e-01) (5, -3.28339755535125732422e-01) (6, 5.46100258827209472656e-01) (7, 1.50000000000000000000e+03) (8, 3.11131691932678222656e+00) (9, -1.36735036969184875488e-01) (10, 1.00403988361358642578e+00) (11, -1.01889714598655700684e-01) (12, -2.99178183078765869141e-01) (0, -9.00082349777221679688e-01) (1, 4.54752206802368164062e-01) (2, 5.54461622238159179688e+00) (3, 1.43447705078125000000e+03) (4, 1.42680630087852478027e-01) (5, 8.89438807964324951172e-01) (6, 7.38540887832641601562e-01) (7, 1.50000000000000000000e+03) (8, 1.19831909179687500000e+03) (9, -2.26700901985168457031e-01) (10, -2.88484781980514526367e-01) (11, 4.62157338857650756836e-01) (12, 5.86905121803283691406e-01) (0, -8.29830741882324218750e+00) (1, 3.09454232454299926758e-01) (2, -7.14150714874267578125e+00) (3, 2.57548952102661132812e+00) (4, -2.44396701455116271973e-01) (5, -2.85315066576004028320e-01) (6, 6.02757334709167480469e-02) (7, 1.50000000000000000000e+03) (8, 2.28578231811523437500e+02) (9, 8.60198289155960083008e-02) (10, -9.56376120448112487793e-02) (11, 6.76971152424812316895e-02) (12, 2.60885030031204223633e-01) (0, -1.14266179502010345459e-01) (1, 1.16663120687007904053e-01) (2, -5.38291811943054199219e-01) (3, 4.90190505981445312500e-01) (4, -5.43849110603332519531e-01) (5, 3.98307055234909057617e-01) (6, 3.99036478996276855469e+00) (7, 1.50000000000000000000e+03) (8, 5.01948394775390625000e+02) (9, 4.42882984876632690430e-01) (10, 1.46737414550781250000e+03) (11, 1.01642340421676635742e-01) (12, 3.06116521358489990234e-01) (0, -5.77407479286193847656e-01) (1, -5.95072567462921142578e-01) (2, -6.31891965866088867188e+00) (3, -6.82226228713989257812e+00) (4, 1.97179412841796875000e+00) (5, -2.82569527626037597656e-01) (6, 3.27667498588562011719e+00) (7, 1.50000000000000000000e+03) (8, 1.27710747718811035156e+00) (9, 5.60869455337524414062e+00) (10, 1.28809976577758789062e+00) (11, 2.31184840202331542969e-01) (12, -6.64136558771133422852e-02) (0, 2.05616176128387451172e-01) (1, 2.32340972870588302612e-02) (2, -2.86010596901178359985e-02) (3, 1.32999876514077186584e-02) (4, -2.77837663888931274414e-01) (5, 2.08343893289566040039e-01) (6, -1.09890353679656982422e+00) (7, 1.50000000000000000000e+03) (8, -1.96378394961357116699e-01) (9, -5.00440299510955810547e-02) (10, -2.20079526305198669434e-01) (11, 6.45540803670883178711e-02) (12, 9.60575342178344726562e-02) (0, 4.87891495227813720703e-01) (1, 3.55689853429794311523e-01) (2, 1.30811548233032226562e+00) (3, 1.36265373229980468750e+00) (4, 2.50818461179733276367e-01) (5, 3.38906109333038330078e-01) (6, 3.92760127782821655273e-01) (7, 1.50000000000000000000e+03) (8, 9.61093664169311523438e-01) (9, 4.18778359889984130859e-01) (10, 4.27628606557846069336e-01) (11, 2.81718909740447998047e-01) (12, 5.99338784813880920410e-02) (0, -5.99635064601898193359e-01) (1, -3.32779556512832641602e-01) (2, -4.71953414380550384521e-02) (3, 1.14202007651329040527e-01) (4, 1.61265909671783447266e-01) (5, -3.25346961617469787598e-02) (6, -2.35771178267896175385e-03) (7, 1.50000000000000000000e+03) (8, 1.71135787963867187500e+01) (9, 1.06713168323040008545e-01) (10, 7.97974616289138793945e-02) (11, 4.84155267477035522461e-02) (12, 2.36885830760002136230e-01) (0, 2.23861828446388244629e-01) (1, 2.54011154174804687500e-01) (2, -1.02733939886093139648e-01) (3, -2.49754428863525390625e-01) (4, 2.45113682746887207031e+00) (5, 2.10088700056076049805e-01) (6, 2.79692173004150390625e-01) (7, 1.50000000000000000000e+03) (8, 1.99748153686523437500e+02) (9, 3.68939876556396484375e-01) (10, 3.18707555532455444336e-01) (11, 3.44211667776107788086e-01) (12, 7.09685459733009338379e-02) (0, 3.02273488044738769531e+00) (1, -3.02428913116455078125e+00) (2, 3.47638626098632812500e+01) (3, 1.46773425292968750000e+03) (4, 1.23908205032348632812e+01) (5, 1.75459742546081542969e+00) (6, 1.30029487609863281250e+00) (7, 1.50000000000000000000e+03) (8, 5.28707361221313476562e+00) (9, 5.00746488571166992188e-01) (10, 4.56420183181762695312e+00) (11, 5.78183794021606445312e+00) (12, 1.45357120037078857422e+00) (0, -1.20413506031036376953e+00) (1, 9.02713611721992492676e-02) (2, 3.65948647260665893555e-01) (3, 1.62816298007965087891e+00) (4, 1.21055580675601959229e-01) (5, 9.11458611488342285156e-01) (6, 3.13503772020339965820e-01) (7, 1.50000000000000000000e+03) (8, 4.43941831588745117188e+00) (9, -5.40388096123933792114e-03) (10, -1.96941927075386047363e-01) (11, 1.65807828307151794434e-01) (12, 3.26583892107009887695e-01) (0, -1.22694752644747495651e-03) (1, 5.37991046905517578125e-01) (2, -6.43520057201385498047e-01) (3, -1.20649404823780059814e-01) (4, 5.11742591857910156250e-01) (5, 4.59779262542724609375e-01) (6, 3.51827025413513183594e+00) (7, 1.50000000000000000000e+03) (8, 5.65121269226074218750e+01) (9, 6.41241610050201416016e-01) (10, 1.21494328975677490234e+00) (11, 7.73185312747955322266e-01) (12, 2.42128223180770874023e-01) (0, 9.55353915691375732422e-01) (1, 4.87456947565078735352e-01) (2, 9.08286929130554199219e-01) (3, 9.55862343311309814453e-01) (4, 6.97559595108032226562e-01) (5, 5.62297582626342773438e-01) (6, 7.60640501976013183594e-01) (7, 1.50000000000000000000e+03) (8, 1.35477578639984130859e+00) (9, 1.31269186735153198242e-01) (10, 8.69678735733032226562e-01) (11, 5.09171545505523681641e-01) (12, -8.53310897946357727051e-02) (0, -1.57468184828758239746e-01) (1, 2.42923200130462646484e-01) (2, 4.53083455562591552734e-01) (3, 4.99946683645248413086e-01) (4, 1.39318585395812988281e-01) (5, 4.81915444135665893555e-01) (6, 2.71671060472726821899e-02) (7, 1.50000000000000000000e+03) (8, -8.36453247070312500000e+00) (9, 2.23319947719573974609e-01) (10, 1.93838447332382202148e-01) (11, 4.67012971639633178711e-01) (12, 5.85480451583862304688e-01) (0, -2.71739155054092407227e-01) (1, 1.05200633406639099121e-01) (2, -1.79120883345603942871e-01) (3, -1.38647943735122680664e-01) (4, -9.77282702922821044922e-01) (5, -1.18729658424854278564e-01) (6, 1.25461399555206298828e+00) (7, 1.50000000000000000000e+03) (8, 1.30908060073852539062e+00) (9, 3.54073792695999145508e-01) (10, 6.80371463298797607422e-01) (11, 3.25729511678218841553e-03) (12, 2.23810136318206787109e-01) (0, 5.86730897426605224609e-01) (1, 2.58187830448150634766e-01) (2, 7.24917054176330566406e-01) (3, 5.02422988414764404297e-01) (4, -6.80304288864135742188e-01) (5, 4.44838404655456542969e-01) (6, 1.00058293342590332031e+00) (7, 1.50000000000000000000e+03) (8, 2.87404775619506835938e+00) (9, -3.44810299575328826904e-02) (10, 1.66346713900566101074e-01) (11, 2.01066538691520690918e-01) (12, 1.22485503554344177246e-01) (0, 1.16160173416137695312e+01) (1, 1.79502636194229125977e-01) (2, 1.93498504638671875000e+02) (3, -9.84262275695800781250e+00) (4, -7.00859260559082031250e+00) (5, 9.35704827308654785156e-01) (6, -4.51846808195114135742e-01) (7, 1.50000000000000000000e+03) (8, 1.43176403045654296875e+01) (9, 6.54769539833068847656e-01) (10, 4.79935929179191589355e-02) (11, 5.81140279769897460938e-01) (12, -3.05063694715499877930e-01) (0, 3.43229919672012329102e-01) (1, 7.31517910957336425781e-01) (2, -9.82457026839256286621e-02) (3, 1.27326278015971183777e-02) (4, 5.87453246116638183594e-01) (5, 4.13590669631958007812e-01) (6, 7.89504528045654296875e-01) (7, 1.50000000000000000000e+03) (8, -1.22777175903320312500e+00) (9, 6.07276141643524169922e-01) (10, 4.43136125802993774414e-01) (11, 6.07845604419708251953e-01) (12, 2.92333573102951049805e-01) (0, -4.51265960931777954102e-01) (1, 9.34132933616638183594e-02) (2, -1.89017489552497863770e-01) (3, -1.66888982057571411133e-01) (4, 1.90219730138778686523e-01) (5, 1.35141918435692787170e-02) (6, 2.29135298728942871094e+00) (7, 1.50000000000000000000e+03) (8, -5.35648524761199951172e-01) (9, 1.51331022381782531738e-01) (10, -8.42221081256866455078e-02) (11, 1.76577821373939514160e-01) (12, 1.24148167669773101807e-01) (0, 3.40614169836044311523e-01) (1, -2.35124722123146057129e-01) (2, -1.16268187761306762695e-01) (3, 3.33613729476928710938e+00) (4, -2.04204618930816650391e-01) (5, 1.30028879642486572266e+00) (6, 3.82215291261672973633e-01) (7, 1.50000000000000000000e+03) (8, 1.12860765457153320312e+01) (9, 6.22186660766601562500e-02) (10, 3.99118065834045410156e-01) (11, 1.61310341209173202515e-02) (12, 3.03383469581604003906e-01) (0, 4.62425380945205688477e-01) (1, 2.03273952007293701172e-01) (2, 6.15056693553924560547e-01) (3, 5.89215517044067382812e-01) (4, 5.60946166515350341797e-01) (5, 6.28024578094482421875e-01) (6, 9.02191579341888427734e-01) (7, 1.50000000000000000000e+03) (8, 7.59225845336914062500e-01) (9, 4.76080596446990966797e-01) (10, -4.19213056564331054688e-01) (11, 3.22712838649749755859e-01) (12, 5.12726724147796630859e-01) (0, 7.70935535430908203125e-01) (1, 1.02765932679176330566e-01) (2, 2.08629980683326721191e-01) (3, 9.49834138154983520508e-02) (4, -1.71622022986412048340e-01) (5, -3.79536956548690795898e-01) (6, -2.22818166017532348633e-01) (7, 1.50000000000000000000e+03) (8, 5.51371276378631591797e-01) (9, -6.42472743988037109375e-01) (10, -6.72979792580008506775e-03) (11, 3.02916038781404495239e-02) (12, -3.01434338092803955078e-01) (0, 2.55044317245483398438e+00) (1, 5.69948077201843261719e-01) (2, -7.33694911003112792969e-01) (3, 3.26302886009216308594e+00) (4, 2.59925633668899536133e-01) (5, 1.49650120735168457031e+00) (6, 6.70641809701919555664e-02) (7, 1.50000000000000000000e+03) (8, 2.74489250183105468750e+01) (9, -4.17852364480495452881e-02) (10, -4.02591735124588012695e-01) (11, 1.96022793650627136230e-01) (12, 1.63230374455451965332e-01) (0, 7.47528791427612304688e-01) (1, -7.22843185067176818848e-02) (2, 4.00401026010513305664e-01) (3, 4.05605107545852661133e-01) (4, -1.07047343626618385315e-02) (5, 6.21044337749481201172e-01) (6, -1.31181299686431884766e-01) (7, 1.50000000000000000000e+03) (8, -1.26997923851013183594e+00) (9, -2.23125323653221130371e-01) (10, -7.44035542011260986328e-02) (11, -2.08792701363563537598e-01) (12, -4.69010561704635620117e-01) (0, -6.13728642463684082031e-01) (1, 8.08932065963745117188e-01) (2, -4.88800346851348876953e-01) (3, -5.61541140079498291016e-01) (4, 1.17840372025966644287e-01) (5, 3.21086376905441284180e-01) (6, 1.81528687477111816406e+00) (7, 1.50000000000000000000e+03) (8, -1.41074025630950927734e+00) (9, 2.88688158988952636719e+00) (10, -5.78401274979114532471e-02) (11, 1.58884584903717041016e-01) (12, 1.07271087169647216797e+00) (0, -2.11872100830078125000e-01) (1, 4.44354504346847534180e-01) (2, -6.88480306416749954224e-03) (3, 1.93671807646751403809e-01) (4, 6.51481389999389648438e-01) (5, 3.19164246320724487305e-01) (6, 4.57127600908279418945e-01) (7, 1.50000000000000000000e+03) (8, 1.43424389648437500000e+03) (9, 8.36774468421936035156e-01) (10, 6.12447261810302734375e-01) (11, 2.99086183309555053711e-01) (12, -2.97227561473846435547e-01) (0, 2.22231492400169372559e-01) (1, -1.46261781454086303711e-01) (2, 2.46589317917823791504e-01) (3, 4.54435974359512329102e-01) (4, -2.15533852577209472656e-01) (5, -2.86520551890134811401e-02) (6, -1.53122767806053161621e-01) (7, 1.50000000000000000000e+03) (8, -3.03714990615844726562e-01) (9, -1.75529137253761291504e-01) (10, -1.12892821431159973145e-01) (11, -1.30317196249961853027e-01) (12, -4.69580143690109252930e-01) (0, -2.80030637979507446289e-01) (1, 1.83364108204841613770e-01) (2, -3.84606242179870605469e-01) (3, -2.31273055076599121094e-01) (4, -3.01420807838439941406e-01) (5, -2.76788622140884399414e-01) (6, 9.41862106323242187500e+01) (7, 1.50000000000000000000e+03) (8, 6.10198140144348144531e-01) (9, 2.75706434249877929688e+00) (10, 3.42560142278671264648e-01) (11, -2.61574864387512207031e-01) (12, 2.02757135033607482910e-01) (0, 3.06045621633529663086e-01) (1, -1.39345958828926086426e-01) (2, 5.15990316867828369141e-01) (3, 6.87336146831512451172e-01) (4, -1.06282472610473632812e+00) (5, 1.18471710011363029480e-02) (6, -2.19811841845512390137e-01) (7, 1.50000000000000000000e+03) (8, 1.13275945186614990234e+00) (9, -1.90195336937904357910e-01) (10, 1.87742993235588073730e-01) (11, -6.64297267794609069824e-02) (12, -2.45440602302551269531e-01) (0, 5.02482950687408447266e-01) (1, 1.12655878067016601562e+00) (2, 1.91886231303215026855e-01) (3, 1.67961671948432922363e-01) (4, 2.18710243701934814453e-01) (5, 4.81533646583557128906e-01) (6, 4.95259076356887817383e-01) (7, 1.50000000000000000000e+03) (8, 4.18258666992187500000e+01) (9, 1.31161201000213623047e+00) (10, -7.71908387541770935059e-02) (11, 6.50559067726135253906e-01) (12, 9.91049334406852722168e-02) (0, 3.59341204166412353516e-01) (1, 5.23531973361968994141e-01) (2, 3.94678443670272827148e-01) (3, 3.47856253385543823242e-01) (4, 5.22984385490417480469e-01) (5, 3.10151100158691406250e-01) (6, 5.94766914844512939453e-01) (7, 1.50000000000000000000e+03) (8, 8.62949905395507812500e+01) (9, 3.48939388990402221680e-01) (10, 4.06760096549987792969e-01) (11, 3.93852800130844116211e-01) (12, 1.87968403100967407227e-01) (0, 6.10112100839614868164e-02) (1, -3.11125703155994415283e-02) (2, -7.45287090539932250977e-02) (3, -1.97966452687978744507e-02) (4, 1.85145840048789978027e-01) (5, 1.18763759732246398926e-01) (6, 5.24346351623535156250e+00) (7, 1.50000000000000000000e+03) (8, -1.48084115982055664062e+00) (9, -9.85792279243469238281e-01) (10, -1.63076266646385192871e-01) (11, 1.67067974805831909180e-01) (12, 7.67862021923065185547e-01) (0, -6.11884176731109619141e-01) (1, 5.90150296688079833984e-01) (2, 3.86895966529846191406e+00) (3, -1.36215436458587646484e+00) (4, 5.07572472095489501953e-01) (5, 8.51684331893920898438e-01) (6, 5.48010051250457763672e-01) (7, 1.50000000000000000000e+03) (8, 7.35349798202514648438e+00) (9, 4.59565848112106323242e-01) (10, 5.14702141284942626953e-01) (11, 5.22891283035278320312e-01) (12, 8.66259187459945678711e-02) (0, 1.04708862304687500000e+00) (1, 5.02692997455596923828e-01) (2, -1.11535526812076568604e-01) (3, -7.55609050393104553223e-02) (4, 6.75733983516693115234e-02) (5, 6.57681524753570556641e-01) (6, 1.76802897453308105469e+00) (7, 1.50000000000000000000e+03) (8, 2.01579236984252929688e+00) (9, 1.67765974998474121094e+00) (10, 6.92990541458129882812e-01) (11, 6.86657428741455078125e-01) (12, 3.03923159837722778320e-01) (0, 1.59548386931419372559e-01) (1, 2.44876906275749206543e-01) (2, 4.82039779424667358398e-01) (3, 4.81522202491760253906e-01) (4, -7.92894780635833740234e-01) (5, 5.06832063198089599609e-01) (6, 6.80346712470054626465e-02) (7, 1.50000000000000000000e+03) (8, 2.34161153435707092285e-01) (9, 6.72927424311637878418e-02) (10, -1.99321229010820388794e-02) (11, 1.98038786649703979492e-01) (12, 4.91306662559509277344e-01) (0, 1.60770207643508911133e-01) (1, -1.59515738487243652344e-01) (2, 1.32665538787841796875e+00) (3, 2.12972307205200195312e+00) (4, 1.12613534927368164062e+00) (5, 9.90409374237060546875e-01) (6, 1.66470956802368164062e+00) (7, 1.50000000000000000000e+03) (8, 3.14050221443176269531e+00) (9, -1.93772241473197937012e-01) (10, 2.65526771545410156250e+01) (11, 5.48424899578094482422e-01) (12, 1.06367003917694091797e+00) (0, 6.72904312610626220703e-01) (1, -4.20528426766395568848e-02) (2, 3.10604631900787353516e-01) (3, 3.34665924310684204102e-01) (4, -2.08755373954772949219e-01) (5, 7.15161487460136413574e-02) (6, 2.24156677722930908203e-01) (7, 1.50000000000000000000e+03) (8, 3.90302634239196777344e+00) (9, 6.85268864035606384277e-02) (10, 6.56883716583251953125e-02) (11, -4.80732731521129608154e-02) (12, -1.99788883328437805176e-01) (0, -2.86231994628906250000e-01) (1, 3.71078968048095703125e-01) (2, -1.03567056357860565186e-01) (3, 1.89347867853939533234e-03) (4, 7.06463515758514404297e-01) (5, 8.36753904819488525391e-01) (6, 4.84117746353149414062e-01) (7, 1.50000000000000000000e+03) (8, -7.42387652397155761719e-01) (9, 1.61783859133720397949e-01) (10, 3.55249166488647460938e-01) (11, 3.67237985134124755859e-01) (12, -2.09032207727432250977e-01) (0, -4.84642654657363891602e-01) (1, 1.20013445615768432617e-01) (2, 4.33242410421371459961e-01) (3, 6.94930732250213623047e-01) (4, 8.39792191982269287109e-02) (5, 2.94048935174942016602e-01) (6, 8.84540863037109375000e+01) (7, 1.50000000000000000000e+03) (8, 8.36865997314453125000e+00) (9, 5.97774624824523925781e-01) (10, 7.72120714187622070312e-01) (11, 1.65251910686492919922e-01) (12, 3.31664115190505981445e-01) (0, -5.91629818081855773926e-02) (1, 3.64955561235547065735e-03) (2, 8.69503244757652282715e-02) (3, 1.05085141956806182861e-01) (4, -3.44521731138229370117e-01) (5, 1.25549018383026123047e-01) (6, 3.49013023078441619873e-02) (7, 1.50000000000000000000e+03) (8, -1.27997204661369323730e-01) (9, 1.55159473419189453125e-01) (10, -1.86878859996795654297e-01) (11, 1.04981191456317901611e-01) (12, 4.76953506469726562500e-01) (0, 1.06182657182216644287e-02) (1, 3.99666428565979003906e-01) (2, 1.82572990655899047852e-01) (3, 8.24840143322944641113e-02) (4, 2.18007106781005859375e+01) (5, 8.13999548554420471191e-02) (6, 5.11018562316894531250e+00) (7, 1.50000000000000000000e+03) (8, 5.68067884445190429688e+00) (9, -1.89221107959747314453e+00) (10, 2.39360094070434570312e+00) (11, 3.18716198205947875977e-01) (12, 8.09534192085266113281e-01) (0, -6.43650814890861511230e-02) (1, 6.72355175018310546875e-01) (2, 2.42634207010269165039e-01) (3, 3.70694339275360107422e-01) (4, 9.55080687999725341797e-01) (5, 4.07006740570068359375e-01) (6, 5.56478142738342285156e-01) (7, 1.50000000000000000000e+03) (8, -1.54525959491729736328e+00) (9, 4.41507905721664428711e-01) (10, 1.63712546229362487793e-01) (11, 4.32447880506515502930e-01) (12, 2.11218729615211486816e-01) (0, 3.34733158349990844727e-01) (1, 5.25430262088775634766e-01) (2, -9.01618748903274536133e-02) (3, -2.37722019664943218231e-03) (4, -4.25948686897754669189e-02) (5, -3.97383600473403930664e-01) (6, 2.12637615203857421875e+00) (7, 1.50000000000000000000e+03) (8, -2.01824140548706054688e+00) (9, 4.41582769155502319336e-01) (10, 1.95866852998733520508e-01) (11, 5.50562858581542968750e-01) (12, 1.65700197219848632812e-01) (0, 1.02194476127624511719e+00) (1, 2.91475445032119750977e-01) (2, -3.06605315208435058594e+00) (3, 3.84761428833007812500e+00) (4, 7.31779336929321289062e-02) (5, 1.38372087478637695312e+00) (6, -3.60878527164459228516e-01) (7, 1.50000000000000000000e+03) (8, 2.66731739044189453125e+01) (9, 8.65048646926879882812e-01) (10, -4.25124377012252807617e-01) (11, 3.77300679683685302734e-01) (12, 2.44093418121337890625e-01) (13, 1.10597699880599975586e-01) (14, 8.53532123565673828125e+00) (15, 2.78395831584930419922e-01) (16, 8.58632922172546386719e-01) (17, 5.48547267913818359375e-01) (18, 4.77265805006027221680e-01) (19, -7.56852626800537109375e-02) (20, -1.79468646645545959473e-01) (21, 2.04054582864046096802e-02) (22, 1.94064989686012268066e-01) (23, 3.60821872949600219727e-01) (24, 6.68890178203582763672e-01) (25, 1.54240667819976806641e-01) (26, -7.52306032180786132812e+00) (27, -1.22454185038805007935e-02) (28, -8.15217941999435424805e-02) (29, 4.84948192024603486061e-04) (30, 5.48892974853515625000e-01) (31, -2.84674912691116333008e-02) (32, 1.51946768164634704590e-01) (33, 5.17892420291900634766e-01) (34, 5.64959526062011718750e-01) (35, 7.20318913459777832031e-01) (36, 1.28752493858337402344e+00) (37, 4.80690926313400268555e-01) (38, 8.43721255660057067871e-02) (39, 6.21932804584503173828e-01) (40, 4.60317254066467285156e-01) (41, 1.63592803478240966797e+00) (42, 4.43342402577400207520e-02) (43, 3.11352515220642089844e+00) (44, 3.25928974151611328125e+00) (45, -3.58422212302684783936e-02) (46, 4.78414416313171386719e-01) (47, 1.43928611278533935547e+00) (48, 4.58030223846435546875e-01) (49, 4.98565286397933959961e-01) (50, -1.25258490443229675293e-01) (51, 8.99863317608833312988e-02) (52, 6.42190217971801757812e-01) (53, 3.85147690773010253906e-01) (54, 1.15576899051666259766e+00) (55, 1.06275022029876708984e-01) (56, 4.57800209522247314453e-01) (57, -9.82352674007415771484e-01) (58, 3.52307945489883422852e-01) (59, 1.47721409797668457031e-01) (60, 3.84866088628768920898e-01) (61, 3.47339361906051635742e-02) (62, 1.00197710096836090088e-01) (63, 4.24136191606521606445e-01) (64, 4.57147032022476196289e-01) (65, 6.02728128433227539062e-01) (66, -1.25723974779248237610e-02) (67, 6.02216005325317382812e-01) (68, -7.71037280559539794922e-01) (69, 5.91633617877960205078e-01) (70, -4.62755747139453887939e-02) (71, 3.21027249097824096680e-01) (72, -2.93142557144165039062e-01) (73, 5.28991937637329101562e-01) (74, -6.21674120426177978516e-01) (75, 4.20661419630050659180e-01) (76, -1.05144667625427246094e+00) (77, 3.41264694929122924805e-01) (78, -1.44070670008659362793e-01) (79, -1.49916084483265876770e-02) (80, 5.75099229812622070312e-01) (81, 4.85399037599563598633e-01) (82, -1.56507968902587890625e-01) (83, -1.74058675765991210938e-01) (84, -1.78290586918592453003e-02) (85, 1.64504349231719970703e+00) (86, 4.64755177497863769531e-01) (87, -1.61883905529975891113e-02) (88, 2.27203890681266784668e-02) (89, 4.54564660787582397461e-01) (90, 4.56203889846801757812e+00) (91, 5.42529165744781494141e-01) (92, 9.03805971145629882812e-01) (93, 1.27570629119873046875e+00) (94, 4.54785197973251342773e-01) (95, 1.40324234962463378906e+00) (96, -2.99927055835723876953e-01) (97, 1.52154183387756347656e+00) (98, 5.68511843681335449219e-01) (99, 4.65401649475097656250e-01) (100, -3.19442786276340484619e-02) (101, 4.56674724817276000977e-01) (102, 4.13041710853576660156e-01) (103, 5.50793826580047607422e-01) (104, -9.76001396775245666504e-02) (105, 6.25539541244506835938e-01) (106, 4.27657753229141235352e-01) (107, 3.40947479009628295898e-01) (108, -5.58899402618408203125e-01) (109, -2.71348088979721069336e-01) (110, 6.06165409088134765625e-01) (111, 4.74435716867446899414e-01) (112, 1.28135904669761657715e-01) (113, 3.33030909299850463867e-01) (13, 4.64621782302856445312e-01) (14, -9.29090023040771484375e-01) (15, 7.02377557754516601562e-01) (16, 8.77152800559997558594e-01) (17, 1.92143964767456054688e+00) (18, -3.35131072998046875000e+00) (19, 1.14994503557682037354e-01) (20, 1.55508363246917724609e+00) (21, 3.73286514282226562500e+01) (22, 5.64283788204193115234e-01) (23, 1.01570916175842285156e+00) (24, 6.74929320812225341797e-01) (25, -9.63764488697052001953e-01) (26, -7.60899305343627929688e+00) (27, -3.43636989593505859375e-01) (28, -1.04332447052001953125e+00) (29, 3.23774963617324829102e-01) (30, 1.01799833774566650391e+00) (31, -7.58655071258544921875e-01) (32, -3.10102514922618865967e-02) (33, 8.81514191627502441406e-01) (34, 7.95167863368988037109e-01) (35, 6.97716295719146728516e-01) (36, 6.44358098506927490234e-01) (37, -3.80088388919830322266e-01) (38, 3.48821170628070831299e-02) (39, 4.91044819355010986328e-01) (40, 6.37181401252746582031e-01) (41, -1.17596209049224853516e+00) (42, -4.81372737884521484375e+00) (43, 2.29385226964950561523e-01) (44, 2.04866104125976562500e+01) (45, -7.07182586193084716797e-02) (46, 4.83161479234695434570e-01) (47, 5.38631498813629150391e-01) (48, 4.62260544300079345703e-01) (49, 1.70164942741394042969e+00) (50, 2.77731008827686309814e-03) (51, -2.78458046913146972656e+00) (52, 2.92685598134994506836e-01) (53, 3.44197130203247070312e+00) (54, 2.48406648635864257812e-01) (55, 4.33519077301025390625e+00) (56, 9.29578363895416259766e-01) (57, -7.48871779069304466248e-03) (58, 6.06355667114257812500e-01) (59, 6.79825842380523681641e-01) (60, 1.50963827967643737793e-01) (61, -9.28438854217529296875e+00) (62, 6.09011054039001464844e-01) (63, 1.00893473625183105469e+00) (64, 5.89016258716583251953e-01) (65, -2.08926647901535034180e-01) (66, 2.57101114839315414429e-02) (67, 7.24108040332794189453e-01) (68, -2.86890774965286254883e-01) (69, 4.04090940952301025391e-01) (70, -4.56524342298507690430e-02) (71, 1.54850885272026062012e-01) (72, -1.38716548681259155273e-01) (73, -5.61491310596466064453e-01) (74, -4.17006063461303710938e+00) (75, 3.24054397642612457275e-02) (76, -1.40586280822753906250e+00) (77, 1.22374489903450012207e-01) (78, -9.78310108184814453125e-02) (79, -3.16916890442371368408e-02) (80, 3.73969435691833496094e-01) (81, 5.83516955375671386719e-01) (82, -2.32049584388732910156e-01) (83, -1.25586062669754028320e-01) (84, -1.78983420133590698242e-01) (85, 8.54726910591125488281e-01) (86, 5.66678285598754882812e-01) (87, 1.21557557582855224609e+00) (88, 1.68135261628776788712e-03) (89, 7.03095495700836181641e-01) (90, 6.11407876014709472656e-01) (91, -1.05622768402099609375e+00) (92, 8.27019333839416503906e-01) (93, 1.57329455018043518066e-01) (94, 3.71091961860656738281e-01) (95, 1.53745979070663452148e-01) (96, 6.31715357303619384766e-02) (97, 1.64492521435022354126e-02) (98, 6.00578367710113525391e-01) (99, 4.70427781343460083008e-01) (100, 3.57956975698471069336e-01) (101, 3.35301905870437622070e-01) (102, 5.90623259544372558594e-01) (103, 6.56823813915252685547e-01) (104, 2.92958378791809082031e-01) (105, -1.60919889807701110840e-01) (106, 4.90903228521347045898e-01) (107, 2.10719853639602661133e-01) (108, -4.64364945888519287109e-01) (109, -1.09685428440570831299e-01) (110, 4.46953177452087402344e-01) (111, 1.23671805858612060547e+00) (112, 5.64114046096801757812e+00) (113, 6.38325452804565429688e-01) (13, 3.49355697631835937500e-01) (14, -5.13786613941192626953e-01) (15, -4.28860336542129516602e-01) (16, -2.65657246112823486328e-01) (17, 2.14656502008438110352e-01) (18, 1.49865433573722839355e-01) (19, 1.21700870990753173828e+00) (20, 3.91310095787048339844e-01) (21, 2.94939965009689331055e-01) (22, 7.14016497135162353516e-01) (23, 1.14390075206756591797e-01) (24, 1.79700687527656555176e-01) (25, 1.11274564266204833984e+00) (26, -1.15516737103462219238e-01) (27, 3.85341525077819824219e-01) (28, 1.66930258274078369141e-01) (29, -7.94546008110046386719e-02) (30, 3.78805547952651977539e-01) (31, 1.91182374954223632812e-01) (32, 1.31196916103363037109e+00) (33, 2.47807592153549194336e-01) (34, 3.12596738338470458984e-01) (35, -4.20596987009048461914e-01) (36, -3.65311801433563232422e-01) (37, 2.53920018672943115234e-01) (38, 1.59648835659027099609e-01) (39, 3.31937074661254882812e-01) (40, 3.58122974634170532227e-01) (41, -3.14051955938339233398e-01) (42, 2.26869273185729980469e+00) (43, 1.25868737697601318359e+00) (44, 1.81533265858888626099e-02) (45, 1.39853382110595703125e+00) (46, 1.28891122341156005859e+00) (47, 2.08696961402893066406e-01) (48, 2.58922606706619262695e-01) (49, 3.47429454326629638672e-01) (50, -1.30737259984016418457e-01) (51, 3.73474895954132080078e-01) (52, 7.16313421726226806641e-02) (53, 2.83331930637359619141e-01) (54, 2.07328036427497863770e-01) (55, 2.99818068742752075195e-01) (56, 4.72367763519287109375e-01) (57, 1.23581743240356445312e+00) (58, 3.49871516227722167969e-01) (59, 1.88828721642494201660e-01) (60, 1.14279389381408691406e+00) (61, 1.12754054367542266846e-01) (62, 1.66453808546066284180e-01) (63, -6.72999098896980285645e-02) (64, 4.38472539186477661133e-01) (65, 3.32591742277145385742e-01) (66, 1.39920711517333984375e+00) (67, 1.11771607398986816406e+00) (68, 3.14250290393829345703e-01) (69, -3.32391053438186645508e-01) (70, 8.47003757953643798828e-01) (71, 3.70989203453063964844e-01) (72, 6.56632065773010253906e-01) (73, 1.33038929197937250137e-03) (74, -2.63124555349349975586e-01) (75, 1.26233768463134765625e+00) (76, 3.27249407768249511719e-01) (77, 2.05372527241706848145e-01) (78, 4.66526359319686889648e-01) (79, 1.21776556968688964844e+00) (80, 4.94655191898345947266e-01) (81, 2.74445295333862304688e-01) (82, 1.98866963386535644531e-01) (83, 1.58847004175186157227e-01) (84, 1.42876788973808288574e-01) (85, -1.86093792319297790527e-01) (86, 4.11063969135284423828e-01) (87, -1.16841420531272888184e-01) (88, 1.17284703254699707031e+00) (89, 4.32647168636322021484e-01) (90, -3.63312751054763793945e-01) (91, 9.05897915363311767578e-02) (92, -2.23284572362899780273e-01) (93, 3.96599560976028442383e-01) (94, 3.04907679557800292969e-01) (95, 2.58501678705215454102e-01) (96, -2.41964802145957946777e-01) (97, 1.61584168672561645508e-01) (98, 4.57958489656448364258e-01) (99, 4.47568267583847045898e-01) (100, 2.82815486192703247070e-01) (101, 1.22390162944793701172e+00) (102, 3.85468930006027221680e-01) (103, 1.67978718876838684082e-01) (104, 1.40438008308410644531e+00) (105, 6.72690570354461669922e-02) (106, 2.59585410356521606445e-01) (107, -3.05343925952911376953e-01) (108, 3.19761484861373901367e-01) (109, 5.54209947586059570312e-01) (110, 3.76472681760787963867e-01) (111, 2.17919275164604187012e-02) (112, 3.79074871540069580078e-01) (113, 4.67730402946472167969e-01) (13, 1.04129636287689208984e+00) (14, 2.33765316009521484375e+01) (15, -4.39292788505554199219e-01) (16, 1.53227448463439941406e+00) (17, 8.84519338607788085938e-01) (18, -5.80092608928680419922e-01) (19, 1.23499226570129394531e+00) (20, 8.47295820713043212891e-01) (21, 1.84483504295349121094e+00) (22, 3.90037417411804199219e+00) (23, 7.90277338027954101562e+00) (24, -7.89569015502929687500e+01) (25, 3.09571800231933593750e+01) (26, 1.93449223041534423828e+00) (27, -3.46706479787826538086e-01) (28, 1.27490997314453125000e+00) (29, -1.00944697856903076172e-01) (30, 1.18264353275299072266e+00) (31, 7.01052129268646240234e-01) (32, 8.61204624176025390625e-01) (33, 5.37644529342651367188e+00) (34, 1.70282661914825439453e+00) (35, 1.26617193222045898438e-01) (36, 2.58490025997161865234e-01) (37, 1.44620084762573242188e+00) (38, 1.60392189025878906250e+00) (39, 8.13664793968200683594e-01) (40, 1.52183187007904052734e+00) (41, -2.45417919158935546875e+01) (42, 3.49527702331542968750e+01) (43, 5.84668517112731933594e-01) (44, 4.66071628034114837646e-02) (45, 8.68486940860748291016e-01) (46, 1.10138511657714843750e+00) (47, -7.85895362496376037598e-02) (48, 1.53427684307098388672e+00) (49, 1.92803514003753662109e+00) (50, 9.29047107696533203125e-01) (51, -7.26244568824768066406e-01) (52, -2.95116186141967773438e-01) (53, 6.01210441589355468750e+01) (54, 6.10904276371002197266e-01) (55, -1.56084582209587097168e-01) (56, 9.88399147987365722656e-01) (57, 1.31520998477935791016e+00) (58, 1.33540296554565429688e+00) (59, 6.01736903190612792969e-01) (60, 1.85722911357879638672e+00) (61, 3.11584167480468750000e+01) (62, 4.20431673526763916016e-01) (63, 1.67870938777923583984e+00) (64, 1.32556021213531494141e+00) (65, 8.28655898571014404297e-01) (66, 9.81009602546691894531e-01) (67, 6.72217190265655517578e-01) (68, -7.29607045650482177734e-01) (69, 2.85283241271972656250e+01) (70, 5.07819652557373046875e-01) (71, 4.60576623678207397461e-01) (72, 6.24102830886840820312e-01) (73, -3.57592225074768066406e-01) (74, -4.89687042236328125000e+02) (75, 1.44799280166625976562e+00) (76, -9.96814422607421875000e+01) (77, 7.85526156425476074219e-01) (78, 8.51267158985137939453e-01) (79, 1.08397102355957031250e+00) (80, 1.81400501728057861328e+00) (81, 1.48193097114562988281e+00) (82, 4.25631433725357055664e-01) (83, 2.15212643146514892578e-01) (84, 7.39766597747802734375e-01) (85, -5.25387644767761230469e-01) (86, 1.36912429332733154297e+00) (87, 5.91993408203125000000e+01) (88, 1.10680186748504638672e+00) (89, 1.44101285934448242188e+00) (90, -6.23151242733001708984e-01) (91, 9.38421905040740966797e-01) (92, 3.38154792785644531250e+00) (93, 5.56037127971649169922e-01) (94, 2.24266457557678222656e+00) (95, 3.19231420755386352539e-01) (96, -7.62902498245239257812e-01) (97, 6.31729006767272949219e-01) (98, 1.49885797500610351562e+00) (99, 1.48617947101593017578e+00) (100, 1.49478495121002197266e+00) (101, 1.30003929138183593750e+00) (102, 2.25484713912010192871e-01) (103, 6.83077514171600341797e-01) (104, 8.59751641750335693359e-01) (105, 5.22718858718872070312e+00) (106, 3.64675474166870117188e+00) (107, 1.96310663223266601562e+00) (108, 6.35529160499572753906e-01) (109, 9.88657295703887939453e-01) (110, 1.39311850070953369141e+00) (111, 1.46540786743164062500e+02) (112, 8.47804129123687744141e-01) (113, 1.35457503795623779297e+00) (13, 6.44386708736419677734e-01) (14, -2.52413177490234375000e+00) (15, 6.80363297462463378906e-01) (16, 2.39215582609176635742e-01) (17, -7.58193433284759521484e-02) (18, 8.12310397624969482422e-01) (19, -3.86112785339355468750e+00) (20, 8.40893685817718505859e-01) (21, -1.65942895412445068359e+00) (22, 1.70136129856109619141e+00) (23, 2.35529989004135131836e-01) (24, 4.74056482315063476562e+00) (25, 4.12526369094848632812e-01) (26, 6.52285933494567871094e-01) (27, 5.64394855499267578125e+00) (28, 5.95785081386566162109e-01) (29, 2.77943277359008789062e+00) (30, 4.55337017774581909180e-01) (31, 2.02514380216598510742e-01) (32, 3.57099562883377075195e-01) (33, 5.08858263492584228516e-02) (34, 3.99869203567504882812e-01) (35, -1.41222616657614707947e-02) (36, 6.33541285991668701172e-01) (37, -3.17836165428161621094e-01) (38, -2.31461867690086364746e-01) (39, -4.50215399265289306641e-01) (40, 7.98735320568084716797e-02) (41, 8.17483997344970703125e+00) (42, 1.38071513175964355469e+00) (43, 2.75943249464035034180e-01) (44, 2.71543788909912109375e+00) (45, 5.53813457489013671875e-01) (46, 3.84006532840430736542e-03) (47, 2.64007627964019775391e-01) (48, 9.53603237867355346680e-02) (49, 1.63373097777366638184e-01) (50, 2.32345628738403320312e+00) (51, 7.22190916538238525391e-01) (52, 1.17325627803802490234e+00) (53, 9.09835100173950195312e-02) (54, 1.84647999703884124756e-02) (55, 1.16898918151855468750e+00) (56, 1.09772130846977233887e-01) (57, 3.93275052309036254883e-01) (58, -6.05177432298660278320e-02) (59, 5.65526902675628662109e-01) (60, 1.85336858034133911133e-01) (61, 6.24166071414947509766e-01) (62, 1.77947354316711425781e+00) (63, 1.60705161094665527344e+00) (64, -1.03315860033035278320e-01) (65, 4.73264157772064208984e-01) (66, 4.07301545143127441406e-01) (67, -8.30513179302215576172e-01) (68, 6.95303261280059814453e-01) (69, 1.12412512302398681641e-01) (70, -4.22770321369171142578e-01) (71, 2.21702903509140014648e-01) (72, 7.83692717552185058594e-01) (73, 4.44209754467010498047e-01) (74, 1.31355249881744384766e+00) (75, -4.16377902030944824219e-01) (76, -9.50110137462615966797e-01) (77, 7.79864564538002014160e-02) (78, 6.19061350822448730469e-01) (79, 5.10445356369018554688e-01) (80, -1.57652080059051513672e-01) (81, -1.71955034136772155762e-01) (82, 3.90928536653518676758e-01) (83, 1.22345018386840820312e+00) (84, -1.09378539025783538818e-01) (85, 9.16086733341217041016e-01) (86, 3.02675515413284301758e-02) (87, 2.27846336364746093750e+00) (88, 3.95744919776916503906e-01) (89, 3.78601849079132080078e-02) (90, -1.61099452525377273560e-02) (91, -2.62465029954910278320e-01) (92, -2.38035954535007476807e-02) (93, 1.69369494915008544922e+00) (94, -4.55003887414932250977e-01) (95, 3.62595021724700927734e-02) (96, 2.46076154708862304688e+00) (97, -9.10655707120895385742e-02) (98, 5.48830807209014892578e-01) (99, 9.20233428478240966797e-02) (100, 1.21469087898731231689e-01) (101, -1.66320994496345520020e-01) (102, 2.26956382393836975098e-01) (103, 4.56582844257354736328e-01) (104, 3.06178241968154907227e-01) (105, 1.06182456016540527344e-01) (106, -7.46664237976074218750e+00) (107, 1.07389479875564575195e-01) (108, 5.30295610427856445312e-01) (109, 5.40947020053863525391e-01) (110, -8.44829156994819641113e-03) (111, 1.11035667359828948975e-01) (112, -2.27653518319129943848e-01) (113, -2.42073133587837219238e-01) (13, 4.16187018156051635742e-01) (14, -5.79141318798065185547e-01) (15, -5.62207937240600585938e-01) (16, -2.34184965491294860840e-01) (17, 2.92281210422515869141e-01) (18, 1.40684187412261962891e-01) (19, 1.13575732707977294922e+00) (20, 1.06035149097442626953e+00) (21, 2.02696815133094787598e-01) (22, -8.52022171020507812500e-02) (23, 4.70563888549804687500e-01) (24, 1.61039412021636962891e-01) (25, 4.80700397491455078125e+00) (26, -2.18211680650711059570e-01) (27, 3.48822921514511108398e-01) (28, 1.70877844095230102539e-01) (29, 5.01953363418579101562e-01) (30, 3.87259155511856079102e-01) (31, 3.69999915361404418945e-01) (32, 1.23308169841766357422e+00) (33, 2.35243156552314758301e-01) (34, 3.98182272911071777344e-01) (35, -4.58620637655258178711e-01) (36, -3.95696669816970825195e-01) (37, 1.43602520227432250977e-01) (38, 4.07861143350601196289e-01) (39, 2.22001239657402038574e-01) (40, 2.94293433427810668945e-01) (41, -2.21240401268005371094e-01) (42, 1.39928829669952392578e+00) (43, 1.09564197063446044922e+00) (44, 3.65586549043655395508e-01) (45, 1.24704742431640625000e+00) (46, 3.92188668251037597656e-01) (47, -4.11489665508270263672e-01) (48, 2.68678337335586547852e-01) (49, 3.01347762346267700195e-01) (50, 2.76567250490188598633e-01) (51, 2.36899167299270629883e-01) (52, 1.07357627712190151215e-03) (53, 1.17289221286773681641e+00) (54, 8.37406888604164123535e-02) (55, 4.41445052623748779297e-01) (56, 4.00438725948333740234e-01) (57, 1.11479830741882324219e+00) (58, 3.59415709972381591797e-01) (59, 3.47013801336288452148e-01) (60, 2.83500492572784423828e-01) (61, 7.61426314711570739746e-02) (62, -4.89590950310230255127e-02) (63, 4.17582303285598754883e-01) (64, 4.74839478731155395508e-01) (65, 2.74922728538513183594e-01) (66, 1.27242994308471679688e+00) (67, 3.35008740425109863281e-01) (68, 2.66585141420364379883e-01) (69, -1.31111100316047668457e-01) (70, 1.06599676609039306641e+00) (71, 4.66327130794525146484e-01) (72, 5.18912374973297119141e-01) (73, 1.38050660490989685059e-01) (74, -3.57301920652389526367e-01) (75, 3.57493788003921508789e-01) (76, 4.18616443872451782227e-01) (77, 1.03005968034267425537e-01) (78, 1.19407689571380615234e+00) (79, 9.98116672039031982422e-01) (80, 4.60785776376724243164e-01) (81, 3.72185558080673217773e-01) (82, 1.84892490506172180176e-01) (83, 2.64733076095581054688e-01) (84, 2.59016543626785278320e-01) (85, -1.51319575309753417969e+00) (86, 3.99441361427307128906e-01) (87, 2.24567145109176635742e-01) (88, 9.44695055484771728516e-01) (89, 4.98194664716720581055e-01) (90, -9.65975672006607055664e-02) (91, 2.11009413003921508789e-01) (92, -2.11899101734161376953e-01) (93, 2.35896319150924682617e-01) (94, 3.45707446336746215820e-01) (95, -3.79945456981658935547e-01) (96, 4.63674098253250122070e-01) (97, -1.72488763928413391113e-01) (98, 3.30912709236145019531e-01) (99, 4.73187834024429321289e-01) (100, 4.61063385009765625000e-01) (101, 4.94223296642303466797e-01) (102, 3.23780417442321777344e-01) (103, 2.04307809472084045410e-01) (104, 1.11663591861724853516e+00) (105, -3.00842374563217163086e-01) (106, 2.58259266614913940430e-01) (107, -4.19817239046096801758e-01) (108, 2.43490740656852722168e-01) (109, 1.14148938655853271484e+00) (110, 3.29224109649658203125e-01) (111, 6.26264438033103942871e-02) (112, 1.60466969013214111328e-01) (113, 2.17505201697349548340e-01) (13, 3.71373385190963745117e-01) (14, 9.07258763909339904785e-02) (15, 1.20059825479984283447e-01) (16, 1.41643321514129638672e+00) (17, 2.41986423730850219727e-01) (18, 1.51658236980438232422e-01) (19, -3.75306159257888793945e-01) (20, -4.25098955631256103516e-01) (21, -1.65246695280075073242e-01) (22, 2.21710830926895141602e-01) (23, 3.89545917510986328125e-01) (24, -1.33781209588050842285e-01) (25, 7.05801725387573242188e-01) (26, 4.57433611154556274414e-02) (27, 1.43801718950271606445e-01) (28, -5.05217500030994415283e-02) (29, 6.10924884676933288574e-02) (30, 2.98138886690139770508e-01) (31, 2.78665006160736083984e-01) (32, -2.81161218881607055664e-01) (33, 2.61896908283233642578e-01) (34, 1.84505373239517211914e-01) (35, 7.91564166545867919922e-01) (36, 1.46928775310516357422e+00) (37, 2.57620871067047119141e-01) (38, 2.05792024731636047363e-01) (39, 4.70821499824523925781e-01) (40, 5.92826902866363525391e-01) (41, 1.91558527946472167969e+00) (42, 6.17206573486328125000e-01) (43, -1.83148100972175598145e-01) (44, 4.80394512414932250977e-02) (45, -4.33719635009765625000e-01) (46, 2.43132069706916809082e-01) (47, 5.02506017684936523438e-01) (48, 4.76904839277267456055e-01) (49, 3.19852083921432495117e-01) (50, 1.90562501549720764160e-01) (51, -5.29204070568084716797e-01) (52, 2.57846444845199584961e-01) (53, 3.10267895460128784180e-01) (54, 6.39255404472351074219e-01) (55, 2.55204975605010986328e-01) (56, 3.19761961698532104492e-01) (57, -4.04114633798599243164e-01) (58, 2.07110553979873657227e-01) (59, 1.84084817767143249512e-01) (60, 8.40481519699096679688e-01) (61, -1.61292418837547302246e-01) (62, 1.02442264556884765625e-01) (63, 1.15921115875244140625e+00) (64, 4.22273814678192138672e-01) (65, 5.21732270717620849609e-01) (66, -3.99339318275451660156e-01) (67, 6.49289965629577636719e-01) (68, 2.75784254074096679688e-01) (69, 8.16032052040100097656e-01) (70, -3.40158700942993164062e-01) (71, -1.26914888620376586914e-01) (72, 6.22257813811302185059e-02) (73, 6.28589212894439697266e-01) (74, -1.89841404557228088379e-01) (75, 5.36882460117340087891e-01) (76, -3.65839093923568725586e-01) (77, 3.45305740833282470703e-01) (78, -3.70132982730865478516e-01) (79, -3.40588569641113281250e-01) (80, 4.27656590938568115234e-01) (81, 3.34181874990463256836e-01) (82, -3.23508113622665405273e-01) (83, 1.83775112032890319824e-01) (84, 2.29783784598112106323e-02) (85, 2.66966313123703002930e-01) (86, 3.14117908477783203125e-01) (87, 2.67553758621215820312e+00) (88, -4.34224426746368408203e-01) (89, 2.03243628144264221191e-01) (90, 1.50526785850524902344e+00) (91, 2.08188176155090332031e-01) (92, 8.98969888687133789062e-01) (93, 9.90032851696014404297e-01) (94, 8.86507391929626464844e-01) (95, 1.33508098125457763672e+00) (96, 2.44584903120994567871e-01) (97, 5.42629212141036987305e-02) (98, 2.83684343099594116211e-01) (99, 4.03767853975296020508e-01) (100, 1.64321660995483398438e-02) (101, 3.69139313697814941406e-01) (102, 2.34810829162597656250e-01) (103, -2.80410051345825195312e-01) (104, -3.38182687759399414062e-01) (105, 1.87317147850990295410e-01) (106, 3.14046770334243774414e-01) (107, 6.58975064754486083984e-01) (108, -8.45875740051269531250e-02) (109, -3.20644944906234741211e-01) (110, 4.03491735458374023438e-01) (111, 3.40254783630371093750e-01) (112, -5.96788758412003517151e-03) (113, -2.29559727013111114502e-02) (13, -2.86293864250183105469e-01) (14, 5.57218253612518310547e-01) (15, 9.38852667808532714844e-01) (16, 7.00661659240722656250e-01) (17, -1.66194796562194824219e-01) (18, 8.36363017559051513672e-01) (19, 5.84393262863159179688e-01) (20, -1.22620776295661926270e-01) (21, 5.29039978981018066406e-01) (22, 7.13202834129333496094e-01) (23, -3.13985139131546020508e-01) (24, 1.32747304439544677734e+00) (25, 2.14467905461788177490e-02) (26, 4.61030215024948120117e-01) (27, -1.74471271038055419922e+00) (28, 6.82474672794342041016e-01) (29, -3.84090632200241088867e-01) (30, -1.54695987701416015625e-01) (31, 4.89408314228057861328e-01) (32, 3.53865474462509155273e-01) (33, -1.00247003138065338135e-01) (34, -5.08094839751720428467e-02) (35, 2.43799388408660888672e-01) (36, 8.11445116996765136719e-01) (37, 2.46948599815368652344e-01) (38, -6.12205043435096740723e-02) (39, 1.52061153203248977661e-02) (40, -2.80140489339828491211e-01) (41, -7.65705704689025878906e-01) (42, 2.30027437210083007812e-01) (43, 5.62607765197753906250e-01) (44, 4.61645144969224929810e-03) (45, 3.79388093948364257812e-01) (46, 4.04855906963348388672e-01) (47, 9.75794255733489990234e-01) (48, -2.27842211723327636719e-01) (49, -2.51542359590530395508e-01) (50, 4.30692434310913085938e-01) (51, 2.38193050026893615723e-01) (52, -5.39022147655487060547e-01) (53, -1.09010323882102966309e-01) (54, -2.72231459617614746094e-01) (55, 9.36265826225280761719e-01) (56, -1.37397050857543945312e-01) (57, 3.52069169282913208008e-01) (58, -1.20311558246612548828e-01) (59, 8.79348039627075195312e-01) (60, -2.44502007961273193359e-01) (61, 4.97144222259521484375e-01) (62, -6.00682199001312255859e-02) (63, -3.52859169244766235352e-01) (64, -1.59594044089317321777e-01) (65, -2.91351288557052612305e-01) (66, 5.89555799961090087891e-01) (67, 5.75541138648986816406e-01) (68, -2.64296650886535644531e-01) (69, 2.21127927303314208984e-01) (70, 4.90072607994079589844e-01) (71, 3.70167702436447143555e-01) (72, -1.28770515322685241699e-01) (73, -9.34646546840667724609e-01) (74, 5.14060199260711669922e-01) (75, 6.68242812156677246094e-01) (76, 6.38751208782196044922e-01) (77, -8.83824080228805541992e-02) (78, 4.71346169710159301758e-01) (79, 3.99091273546218872070e-01) (80, -1.53848722577095031738e-01) (81, -1.74051940441131591797e-01) (82, 4.64885443449020385742e-01) (83, 2.03739404678344726562e-01) (84, 5.97839891910552978516e-01) (85, -4.96163628995418548584e-02) (86, -2.10431531071662902832e-01) (87, 4.23218607902526855469e-01) (88, 5.35214066505432128906e-01) (89, 5.25155901908874511719e-01) (90, 3.12764704227447509766e-01) (91, -4.14630889892578125000e-01) (92, -1.05583262443542480469e+00) (93, -9.22037601470947265625e-01) (94, -2.54734635353088378906e-01) (95, 6.83149814605712890625e-01) (96, -5.83889365196228027344e-01) (97, 7.21847236156463623047e-01) (98, -1.76589399576187133789e-01) (99, -9.27342250943183898926e-02) (100, 7.57558122277259826660e-02) (101, 6.91898882389068603516e-01) (102, -7.82558023929595947266e-02) (103, 5.29425203800201416016e-01) (104, 6.04007363319396972656e-01) (105, 3.20894598960876464844e-01) (106, -2.90438890457153320312e-01) (107, -5.69307133555412292480e-02) (108, 4.94621366262435913086e-01) (109, 4.30056840181350708008e-01) (110, -1.65477052330970764160e-01) (111, 7.22638726234436035156e-01) (112, 2.92629539966583251953e-01) (113, -1.50783425197005271912e-02) (13, 4.79632258415222167969e-01) (14, 1.01364791393280029297e+00) (15, 8.46178770065307617188e-01) (16, -1.81077241897583007812e-01) (17, 7.42763638496398925781e-01) (18, -1.28134205937385559082e-01) (19, 5.59453308582305908203e-01) (20, -3.95907640457153320312e+00) (21, 6.77004754543304443359e-02) (22, 4.93676471710205078125e+00) (23, 5.98771214485168457031e-01) (24, -3.39866399765014648438e-01) (25, 4.39905452728271484375e+00) (26, 6.64354637265205383301e-02) (27, 2.02041220664978027344e+00) (28, 4.39039409160614013672e-01) (29, 1.37481376528739929199e-01) (30, 1.00995838642120361328e+00) (31, 1.50041520595550537109e-01) (32, 2.38644957542419433594e-01) (33, 8.35386395454406738281e-01) (34, 9.71570670604705810547e-01) (35, 1.49256145954132080078e+00) (36, 8.31943973898887634277e-02) (37, 1.08073115348815917969e+00) (38, 4.22311097383499145508e-01) (39, 1.05359709262847900391e+00) (40, 2.38337606191635131836e-01) (41, 6.83826446533203125000e-01) (42, 9.37373042106628417969e-01) (43, 2.74937182664871215820e-01) (44, 9.32972952723503112793e-02) (45, 2.72684574127197265625e-01) (46, 9.10306930541992187500e-01) (47, 1.69881939888000488281e-01) (48, 8.46699893474578857422e-01) (49, 9.86952781677246093750e-01) (50, 2.82924115657806396484e-01) (51, 3.76141381263732910156e+00) (52, 5.20454347133636474609e-01) (53, 9.91475284099578857422e-01) (54, 1.43352508544921875000e+00) (55, -4.04042720794677734375e-01) (56, 4.50784146785736083984e-01) (57, 7.94042408466339111328e-01) (58, 1.05971312522888183594e+00) (59, -2.17360079288482666016e-01) (60, -7.39459991455078125000e-01) (61, 7.58964896202087402344e-01) (62, 1.04154214859008789062e+01) (63, 5.30523478984832763672e-01) (64, 9.52869832515716552734e-01) (65, 5.56384682655334472656e-01) (66, 4.64035391807556152344e-01) (67, 6.13083481788635253906e-01) (68, 2.04595451354980468750e+01) (69, 5.55088102817535400391e-01) (70, 5.63357830047607421875e-01) (71, 1.82465565204620361328e+00) (72, 1.84078872203826904297e-01) (73, 8.97317290306091308594e-01) (74, -9.49929878115653991699e-02) (75, 1.24850857257843017578e+00) (76, -1.08835756778717041016e+00) (77, 7.84384369850158691406e-01) (78, 4.07683998346328735352e-01) (79, 3.06550741195678710938e-01) (80, 8.24754238128662109375e-01) (81, 1.21132898330688476562e+00) (82, 1.04163074493408203125e+00) (83, 3.90123844146728515625e+00) (84, 9.39633309841156005859e-01) (85, 5.78481817245483398438e+00) (86, 1.06107914447784423828e+00) (87, 2.50578994750976562500e+01) (88, 4.10364240407943725586e-01) (89, 2.63229727745056152344e-01) (90, -7.60223722457885742188e+00) (91, 1.36542654037475585938e+00) (92, -7.08625912666320800781e-01) (93, 1.56800138950347900391e+00) (94, 9.12631273269653320312e-01) (95, 3.60277652740478515625e-01) (96, 4.55328845977783203125e+00) (97, 7.80531525611877441406e-01) (98, 8.95727992057800292969e-01) (99, 9.30411219596862792969e-01) (100, 1.65495479106903076172e+00) (101, 9.11178767681121826172e-01) (102, 6.52274727821350097656e-01) (103, 1.20630927383899688721e-01) (104, 4.35937106609344482422e-01) (105, 6.87564134597778320312e-01) (106, 1.01142978668212890625e+00) (107, 8.03033471107482910156e-01) (108, 2.99706310033798217773e-01) (109, 5.79545855522155761719e-01) (110, 1.05083060264587402344e+00) (111, 8.14647734165191650391e-01) (112, 4.72533464431762695312e-01) (113, 1.05615866184234619141e+00) (13, 3.78535270690917968750e-01) (14, -2.54267435520887374878e-02) (15, -6.73268036916851997375e-03) (16, 1.01756639778614044189e-01) (17, -1.22243694961071014404e-01) (18, 7.01382458209991455078e-01) (19, 6.90153777599334716797e-01) (20, 4.67873662710189819336e-01) (21, 1.59573987126350402832e-01) (22, 2.15049445629119873047e-01) (23, 3.81087251007556915283e-02) (24, 5.88254034519195556641e-01) (25, 6.26291036605834960938e-01) (26, 5.13245284557342529297e-01) (27, 1.99720934033393859863e-01) (28, 3.82859051227569580078e-01) (29, 5.99183380603790283203e-01) (30, 4.44531859830021858215e-03) (31, 5.17739117145538330078e-01) (32, 5.80519199371337890625e-01) (33, 5.29204368591308593750e-01) (34, -6.61232993006706237793e-02) (35, 3.20450700819492340088e-02) (36, 7.94685482978820800781e-02) (37, 4.24760550260543823242e-01) (38, 5.85303246974945068359e-01) (39, 4.25362616777420043945e-01) (40, 6.45536556839942932129e-02) (41, -5.18840439617633819580e-02) (42, 3.49304556846618652344e-01) (43, 6.88002824783325195312e-01) (44, 4.71555888652801513672e-01) (45, 6.60466551780700683594e-01) (46, -3.78550551831722259521e-02) (47, 1.05326727032661437988e-01) (48, 2.56148099899291992188e-01) (49, -1.05759419500827789307e-01) (50, 8.58582407236099243164e-02) (51, 7.84082531929016113281e-01) (52, -6.75108134746551513672e-02) (53, 4.65185344219207763672e-01) (54, -8.05193483829498291016e-02) (55, 1.97206214070320129395e-01) (56, 6.35610342025756835938e-01) (57, 5.65426290035247802734e-01) (58, 7.03805983066558837891e-01) (59, 5.32440900802612304688e-01) (60, 4.46796566247940063477e-02) (61, 2.86667406558990478516e-01) (62, -1.59836664795875549316e-01) (63, 4.43325996398925781250e-01) (64, -6.74683600664138793945e-02) (65, 3.16781014204025268555e-01) (66, 6.20330333709716796875e-01) (67, 1.69328331947326660156e-01) (68, 7.25617587566375732422e-01) (69, 6.86105191707611083984e-02) (70, 5.73740184307098388672e-01) (71, 1.06888800859451293945e-01) (72, 4.16637718677520751953e-01) (73, -4.42978382110595703125e-01) (74, 4.96825069189071655273e-01) (75, 9.44865420460700988770e-02) (76, 3.52193206548690795898e-01) (77, 5.55543303489685058594e-01) (78, 6.00678265094757080078e-01) (79, 6.04948222637176513672e-01) (80, 1.49806424975395202637e-01) (81, 1.04587391018867492676e-01) (82, 2.72746473550796508789e-01) (83, 3.78857284784317016602e-01) (84, 2.04642806202173233032e-02) (85, -1.63174533843994140625e+00) (86, 1.50213418528437614441e-02) (87, 1.98895260691642761230e-02) (88, 7.68184840679168701172e-01) (89, 5.84918916225433349609e-01) (90, 1.54312223196029663086e-01) (91, -2.56219282746315002441e-02) (92, 8.75661987811326980591e-03) (93, -1.56170308589935302734e-01) (94, 7.24776387214660644531e-02) (95, -4.08439934253692626953e-02) (96, 1.38269409537315368652e-01) (97, 8.76253619790077209473e-02) (98, -3.79319749772548675537e-02) (99, 2.76655629277229309082e-02) (100, 7.24121391773223876953e-01) (101, 7.13766217231750488281e-02) (102, -2.52351552248001098633e-01) (103, 6.17792665958404541016e-01) (104, 9.40144300460815429688e-01) (105, -1.18590332567691802979e-01) (106, 4.61589470505714416504e-02) (107, -3.53563576936721801758e-01) (108, 4.80243384838104248047e-01) (109, 7.28130519390106201172e-01) (110, -1.91210713237524032593e-02) (111, 9.18202474713325500488e-02) (112, -1.74390152096748352051e-01) (113, 2.60922670364379882812e-01) (13, -1.10680967569351196289e-01) (14, 2.87353128194808959961e-01) (15, 6.38426840305328369141e-02) (16, 1.14273059368133544922e+00) (17, 3.50895196199417114258e-01) (18, 3.86553406715393066406e-01) (19, -1.22825369238853454590e-01) (20, -8.64922553300857543945e-02) (21, -9.45680066943168640137e-02) (22, -3.88465300202369689941e-02) (23, -6.04374185204505920410e-02) (24, -2.15418264269828796387e-01) (25, 7.41927087306976318359e-01) (26, 1.66674447059631347656e+00) (27, -2.70384661853313446045e-02) (28, 1.66838496923446655273e-01) (29, 2.43252113461494445801e-01) (30, 4.18431818485260009766e-01) (31, 7.11126625537872314453e-01) (32, -2.36863762140274047852e-01) (33, 4.23198163509368896484e-01) (34, 3.52870672941207885742e-01) (35, 9.20051634311676025391e-01) (36, 1.03022623062133789062e+00) (37, 3.90390694141387939453e-01) (38, 6.43524825572967529297e-01) (39, 2.97181755304336547852e-01) (40, 3.13597559928894042969e-01) (41, 9.28361713886260986328e-01) (42, 1.00140786170959472656e+00) (43, -2.73905545473098754883e-02) (44, 1.90577149391174316406e-01) (45, -1.68898791074752807617e-01) (46, 3.25590103864669799805e-01) (47, 1.06102955341339111328e+00) (48, 3.68479341268539428711e-01) (49, 3.41295808553695678711e-01) (50, 2.11427528411149978638e-02) (51, -3.19777101278305053711e-01) (52, 5.76145946979522705078e-01) (53, 2.96416074037551879883e-01) (54, 4.07370954751968383789e-01) (55, 3.91383260488510131836e-01) (56, 2.64633566141128540039e-01) (57, -1.44985198974609375000e-01) (58, 2.99601674079895019531e-01) (59, 3.76995563507080078125e-01) (60, 3.04896146059036254883e-01) (61, -7.68789555877447128296e-03) (62, -3.33231717348098754883e-01) (63, 1.07463526725769042969e+00) (64, 2.38679409027099609375e-01) (65, -9.64538305997848510742e-02) (66, -1.08878932893276214600e-01) (67, 7.06562042236328125000e-01) (68, -1.99732892215251922607e-02) (69, 7.86282598972320556641e-01) (70, -2.91897326707839965820e-01) (71, 1.68643787503242492676e-01) (72, -1.20486468076705932617e-02) (73, 4.91128236055374145508e-01) (74, -4.45168912410736083984e-02) (75, 3.69058936834335327148e-01) (76, -4.93711978197097778320e-02) (77, 2.39007726311683654785e-01) (78, -2.29222908616065979004e-01) (79, -2.81324386596679687500e-01) (80, 3.74326139688491821289e-01) (81, 3.90040338039398193359e-01) (82, -2.92521595954895019531e-01) (83, -1.26227140426635742188e-01) (84, -8.28841552138328552246e-02) (85, 2.27675899863243103027e-01) (86, 2.50872731208801269531e-01) (87, -8.55507180094718933105e-02) (88, -2.26486787199974060059e-01) (89, -2.00452953577041625977e-01) (90, 8.67957770824432373047e-01) (91, 2.18080461025238037109e-01) (92, 9.00430917739868164062e-01) (93, 6.32899284362792968750e-01) (94, 2.90134459733963012695e-01) (95, 1.23493611812591552734e+00) (96, 3.53012055158615112305e-01) (97, 9.92700517177581787109e-01) (98, 3.75165969133377075195e-01) (99, 3.88419538736343383789e-01) (100, 4.90096881985664367676e-02) (101, 4.38370436429977416992e-01) (102, 1.62776798009872436523e-01) (103, -1.18512818589806556702e-02) (104, -1.28099724650382995605e-01) (105, 2.85609304904937744141e-01) (106, 2.62871593236923217773e-01) (107, 8.00705134868621826172e-01) (108, -1.06908090412616729736e-01) (109, -1.67102694511413574219e-01) (110, 3.20160210132598876953e-01) (111, 7.82620832324028015137e-02) (112, -1.45990341901779174805e-01) (113, 1.58884346485137939453e-01) (13, -1.24832838773727416992e-01) (14, 4.81346696615219116211e-01) (15, 8.54363501071929931641e-01) (16, 5.89354872703552246094e-01) (17, 1.67541015148162841797e+00) (18, 3.47826123237609863281e-01) (19, -6.88743516802787780762e-02) (20, -5.31020835041999816895e-02) (21, 4.06279146671295166016e-01) (22, 8.03217709064483642578e-01) (23, -3.00441235303878784180e-01) (24, 2.94674038887023925781e-01) (25, 4.10653561353683471680e-01) (26, 2.61960220336914062500e+00) (27, -1.15387368202209472656e+00) (28, 3.10236394405364990234e-01) (29, -6.30432784557342529297e-01) (30, -5.02195246517658233643e-02) (31, -6.15783154964447021484e-01) (32, -5.79536929726600646973e-02) (33, 3.90510521829128265381e-02) (34, -5.38473911583423614502e-02) (35, 7.11480319499969482422e-01) (36, 5.93182981014251708984e-01) (37, 2.05328273773193359375e+00) (38, 3.65544259548187255859e-01) (39, 1.61359298229217529297e+00) (40, 2.64822602272033691406e-01) (41, 5.64093887805938720703e-01) (42, 8.42392027378082275391e-01) (43, 2.82018423080444335938e-01) (44, -1.03792214393615722656e+00) (45, 4.74213659763336181641e-02) (46, 3.72424691915512084961e-01) (47, 7.69972264766693115234e-01) (48, 3.58393162488937377930e-01) (49, 3.36678236722946166992e-01) (50, -9.94379281997680664062e-01) (51, 3.32802742719650268555e-01) (52, -9.42220747470855712891e-01) (53, -8.82582888007164001465e-02) (54, 2.44505956768989562988e-01) (55, 1.21371768414974212646e-01) (56, -2.65066418796777725220e-02) (57, 2.37000640481710433960e-02) (58, 1.12325131893157958984e-01) (59, 4.78984415531158447266e-01) (60, 5.33824980258941650391e-01) (61, 1.31337374448776245117e-01) (62, -1.39452612400054931641e+00) (63, -6.69465810060501098633e-02) (64, 5.14762759208679199219e-01) (65, -4.12561483681201934814e-02) (66, -8.57753157615661621094e-02) (67, 5.44099867343902587891e-01) (68, -5.98301962018013000488e-02) (69, 2.13444814085960388184e-01) (70, 1.76947087049484252930e-01) (71, 3.54808866977691650391e-01) (72, 4.22744005918502807617e-02) (73, -6.07404887676239013672e-01) (74, 6.22723519802093505859e-01) (75, 3.36755275726318359375e-01) (76, -1.61233615875244140625e+00) (77, 1.21173471212387084961e-01) (78, -1.54006844386458396912e-02) (79, 2.65521164983510971069e-02) (80, 4.56674009561538696289e-01) (81, 4.17836993932723999023e-01) (82, -3.38957607746124267578e-02) (83, -4.59705442190170288086e-02) (84, 3.98499190807342529297e-01) (85, 3.37650179862976074219e+00) (86, -6.78431987762451171875e-02) (87, 1.41260638833045959473e-01) (88, 4.24419306218624114990e-02) (89, 1.27944111824035644531e-01) (90, 6.72419071197509765625e-01) (91, 3.21611225605010986328e-01) (92, 8.47614049911499023438e-01) (93, -1.48746728897094726562e+00) (94, 3.58234405517578125000e-01) (95, 7.84005701541900634766e-01) (96, -4.48192507028579711914e-01) (97, 8.32794845104217529297e-01) (98, 5.26319801807403564453e-01) (99, 4.80115383863449096680e-01) (100, 6.71897172927856445312e-01) (101, 4.17547881603240966797e-01) (102, -5.57331204414367675781e-01) (103, -4.78394925594329833984e-02) (104, -8.26636981219053268433e-03) (105, 1.32960855960845947266e+00) (106, 5.97257018089294433594e-01) (107, -1.11055873334407806396e-01) (108, 2.35425412654876708984e-01) (109, 1.96511074900627136230e-02) (110, 4.66620773077011108398e-01) (111, -6.20787918567657470703e-01) (112, 5.08273959159851074219e-01) (113, 1.19567072391510009766e+00) (13, -1.01479128003120422363e-01) (14, 4.81089162826538085938e+00) (15, -4.34397602081298828125e+00) (16, -1.95134162902832031250e+01) (17, 7.97434687614440917969e-01) (18, 3.73206526041030883789e-01) (19, 7.55090918391942977905e-03) (20, 4.53195750713348388672e-01) (21, 3.60881462097167968750e+01) (22, -1.04752671718597412109e+00) (23, 8.86369287967681884766e-01) (24, -5.78303597867488861084e-02) (25, 3.00152540206909179688e+00) (26, 2.29617214202880859375e+00) (27, 2.15304732322692871094e-01) (28, -5.93070328235626220703e-01) (29, 2.95379132032394409180e-01) (30, 1.14312076568603515625e+00) (31, 1.88920581340789794922e+00) (32, 1.39146625995635986328e-01) (33, 1.02347445487976074219e+00) (34, 1.21664595603942871094e+00) (35, 1.44393002986907958984e+00) (36, 5.67522048950195312500e-01) (37, -7.24389970302581787109e-01) (38, -9.13359448313713073730e-02) (39, 9.89841997623443603516e-01) (40, 3.61366271972656250000e+00) (41, -2.52087860107421875000e+01) (42, 7.46104180812835693359e-01) (43, 1.21292218565940856934e-01) (44, 1.74185895919799804688e+00) (45, 4.21249628067016601562e-01) (46, 1.24116265773773193359e+00) (47, 4.74617838859558105469e-01) (48, -9.02390852570533752441e-02) (49, -9.60085764527320861816e-02) (50, 5.67933320999145507812e-01) (51, 1.12142644822597503662e-01) (52, -1.16820514202117919922e+00) (53, 9.92791891098022460938e-01) (54, 5.34006953239440917969e-01) (55, 8.38306188583374023438e-01) (56, 3.55540728569030761719e+00) (57, 3.21223855018615722656e-01) (58, 4.20137852430343627930e-01) (59, 2.39074483513832092285e-01) (60, -1.64387047290802001953e-01) (61, 2.80380725860595703125e+00) (62, -8.57644498348236083984e-01) (63, 7.22919404506683349609e-01) (64, 1.24535894393920898438e+00) (65, -1.10975295305252075195e-01) (66, 2.80225366353988647461e-01) (67, 1.75500679016113281250e+00) (68, 3.12629789113998413086e-01) (69, 1.29457235336303710938e+00) (70, 2.68647819757461547852e-01) (71, 1.36317443847656250000e+00) (72, 1.63121432065963745117e-01) (73, 1.22066712379455566406e+00) (74, 2.23015213012695312500e+00) (75, 1.13499498367309570312e+00) (76, 3.19851732254028320312e+00) (77, 4.22522187232971191406e-01) (78, 3.74360829591751098633e-01) (79, -2.71383207291364669800e-02) (80, 8.11549007892608642578e-01) (81, 8.05951774120330810547e-01) (82, -5.29792428016662597656e-01) (83, -2.05617427825927734375e-01) (84, -4.66561049222946166992e-01) (85, -1.55033531188964843750e+01) (86, 1.27877008914947509766e+00) (87, 1.91890001296997070312e+00) (88, 3.64507585763931274414e-02) (89, 4.24869716167449951172e-01) (90, -6.85588788986206054688e+00) (91, 5.56210815906524658203e-01) (92, 3.40557396411895751953e-01) (93, -3.38789701461791992188e+00) (94, -3.08329705148935317993e-02) (95, 2.95750498771667480469e-01) (96, 1.13864910602569580078e+00) (97, -1.03602752089500427246e-01) (98, 1.18795478343963623047e+00) (99, 1.16884982585906982422e+00) (100, -1.49904251098632812500e-01) (101, 1.49700748920440673828e+00) (102, 2.44616842269897460938e+00) (103, -1.75487880706787109375e+01) (104, 4.44516986608505249023e-01) (105, -2.12006010115146636963e-02) (106, 2.09040343761444091797e-01) (107, 3.36832851171493530273e-01) (108, -6.09110951423645019531e-01) (109, 3.65701943635940551758e-01) (110, 1.27344179153442382812e+00) (111, 9.06395673751831054688e-01) (112, -2.41381704807281494141e-01) (113, 1.17959702014923095703e+00) (13, -1.65858238935470581055e-01) (14, 9.78610292077064514160e-02) (15, 5.79068720340728759766e-01) (16, 1.34904503822326660156e-01) (17, 8.60383331775665283203e-01) (18, 5.18912136554718017578e-01) (19, 7.68620550632476806641e-01) (20, 6.34561657905578613281e-01) (21, 2.45661392807960510254e-01) (22, 3.40535759925842285156e-01) (23, 1.32143437862396240234e-01) (24, 6.02713763713836669922e-01) (25, 5.02253293991088867188e-01) (26, 2.65819311141967773438e-01) (27, 5.56857526302337646484e-01) (28, 2.16019302606582641602e-01) (29, 5.63877880573272705078e-01) (30, 